{"Weights":[[["0.804280996322632","-0.859417676925659","0.128940224647522","-0.559549570083618","-0.886090278625488","-0.974532842636108","-0.931783676147461"],["0.739380121231079","-0.144856333732605","0.790894985198975","-0.203790307044983","0.144701600074768","0.709084272384644","0.098143458366394"],["0.498478144407272","0.409997195005417","-0.903302431106567","-0.1905916929245","0.356433600187302","-0.719663143157959","-0.00675666332244873"],["-0.253160119056702","0.575884580612183","0.281222075223923","-0.724439144134521","0.531231641769409","0.418634623289108","0.863823413848877"]],[["-0.880012512207031","0.262755125761032","0.160165190696716","-0.974252223968506","0.537758111953735","0.221073508262634","-0.0389779806137085"],["-0.775822401046753","-0.248687386512756","0.473922699689865","0.467819422483444","-0.452380776405334","0.805572271347046","-0.394335627555847"],["0.936983108520508","0.995020627975464","0.770992994308472","0.0643302202224731","0.601725578308105","0.687230348587036","0.460524529218674"],["-0.269792914390564","0.813310146331787","-0.993457078933716","-0.573460102081299","-0.473146557807922","-0.843352317810059","-0.896430492401123"],["0.966962814331055","0.983713150024414","-0.156715989112854","0.76967978477478","-0.915811061859131","0.186151385307312","-0.874159812927246"],["-0.0180400609970093","0.139402270317078","0.127719759941101","-0.970354080200195","-0.231977105140686","-0.196446299552917","-0.865625858306885"],["0.282153576612473","0.570005178451538","-0.90282154083252","-0.23795211315155","0.0640522241592407","-0.345398545265198","-0.610051393508911"]],[["-0.249279379844666","0.921514749526978","-0.98488974571228"],["-0.156909584999084","-0.415026307106018","0.553673982620239"],["-0.629977941513062","0.527639627456665","0.330966681241989"],["-0.968931198120117","0.119291424751282","0.929247856140137"],["-0.655211687088013","0.396126717329025","-0.0708338022232056"],["-0.289604544639587","-0.00922238826751709","0.620843887329102"],["-0.735891819000244","0.646986722946167","0.520057439804077"]]],"Biases":["-0.130322813987732","-0.137089610099792","-0.576533079147339"]}