{"Weights":[[["0.231751322746277","-0.873055458068848","0.339714020490646","0.353786915540695","-0.162669539451599","0.0951043367385864","-0.869032621383667"],["0.0507427453994751","0.541661739349365","-0.267610430717468","-0.662851810455322","0.83507227897644","-0.181946635246277","0.226671814918518"],["-0.786285161972046","0.502568483352661","0.687265872955322","-0.0781649351119995","-0.574509620666504","-0.733770847320557","-0.638153553009033"],["0.0435515642166138","0.434342592954636","-0.160352826118469","0.69831109046936","0.328548401594162","0.129229187965393","0.938508987426758"],["-0.0735820531845093","-0.97870659828186","0.831708908081055","0.47521635890007","0.956186771392822","0.40537902712822","-0.752257585525513"],["0.518388271331787","-0.442219376564026","-0.0579019784927368","0.6227126121521","0.628925085067749","0.502453804016113","-0.80869722366333"],["0.584819793701172","-0.294061064720154","0.307742089033127","-0.616915225982666","-0.162530779838562","-0.285244584083557","-0.999283313751221"],["-0.100224614143372","-0.81830358505249","-0.606012582778931","-0.812464237213135","-0.558386325836182","0.136194348335266","0.728206396102905"],["-0.989184856414795","0.583618402481079","-0.815558433532715","-0.607534885406494","-0.301540017127991","0.638609409332275","-0.68189001083374"],["0.398614853620529","0.46209380030632","-0.428332686424255","0.83246636390686","0.659287691116333","0.593366146087646","-0.562825679779053"],["-0.368375420570374","-0.608646869659424","0.49866458773613","0.57201075553894","-0.0239208936691284","-0.237537026405334","-0.268950343132019"]],[["-0.320625424385071","-0.315829873085022","-0.10506284236908","1","0.516774296760559","-1","-0.750714540481567"],["-0.172320961952209","0.361421793699265","-0.984648466110229","0.0305837392807007","-0.0240336656570435","-0.634027600288391","1"],["0.0920029878616333","0.27344024181366","-0.914822578430176","-0.332367062568665","-0.640369892120361","-0.867957592010498","0.29656121134758"],["-0.486653447151184","-0.600489258766174","-0.579573154449463","-0.697785615921021","0.77589225769043","0.87826132774353","0.901304483413696"],["0.133374333381653","0.518195629119873","0.682380199432373","0.644989490509033","0.818666219711304","-0.788097381591797","0.0596045255661011"],["0.129088997840881","-0.01020348072052","0.502078294754028","-0.0498884916305542","0.917182207107544","-0.849989175796509","-0.426200985908508"],["0.198689103126526","-0.420222401618958","0.920964956283569","-0.0886763334274292","-0.975054502487183","0.874356031417847","0.192837119102478"]],[["-0.754164457321167","-0.533674716949463","-0.250208497047424"],["-0.734302759170532","0.0828582048416138","1"],["-0.265754580497742","-0.858580589294434","-1"],["0.515610456466675","-0.573081016540527","0.862849354743958"],["-0.291434645652771","0.995864391326904","0.419758766889572"],["-0.766494631767273","0.834265828132629","-0.156827569007874"],["0.443184942007065","-0.254225373268127","0.267090201377869"]]],"Biases":["-0.0916222333908081","-0.168710827827454","0.00461351871490479"]}