{"Weights":[[["0.544378519058228","-0.958816766738892","0.19782030582428","0.128280282020569","-0.711059808731079","-0.402992367744446","-0.302157521247864"],["0.539671659469604","0.607672691345215","-0.707084178924561","0.36601397395134","-0.960355043411255","0.608237266540527","0.839076519012451"],["-0.237105011940002","0.465282171964645","0.803775072097778","0.4579858481884","0.633606433868408","0.379784315824509","-0.496214985847473"],["-0.205817103385925","-0.221057534217834","0.17402184009552","-0.839658975601196","-0.694750308990479","0.440059870481491","-0.387709736824036"]],[["-0.901074409484863","-0.66968822479248","-0.545614242553711","-0.267328143119812","0.451412886381149","0.366392582654953","-0.163614153862"],["-0.684603452682495","-0.0844684839248657","0.179203629493713","-0.113497853279114","-0.854041814804077","-0.160810828208923","0.098044753074646"],["-0.87945818901062","0.974086046218872","-0.822729349136353","0.781864881515503","0.41783544421196","-0.94887375831604","-0.656980752944946"],["-0.276433348655701","0.48183199763298","0.618912696838379","-0.265708088874817","0.237176299095154","0.43239614367485","0.931704521179199"],["-0.217508673667908","-0.152593731880188","0.853636503219604","0.385426014661789","0.157489657402039","-0.43038809299469","-0.391186356544495"],["0.982394695281982","0.364553183317184","0.540974378585815","-0.373963713645935","0.621056318283081","0.347250908613205","-0.669610261917114"],["0.739884614944458","-0.649211168289185","-0.443814158439636","0.817087650299072","-0.421749472618103","0.646859645843506","0.131029963493347"]],[["0.873027801513672","-0.155652403831482","-0.100574374198914"],["0.983498096466064","-0.963203191757202","0.857659816741943"],["0.645678758621216","-0.511387348175049","0.443335026502609"],["-0.829941987991333","-0.739764451980591","0.822402477264404"],["-0.835206508636475","0.0810540914535522","-0.818176746368408"],["0.962799072265625","-0.678629398345947","-0.0706497430801392"],["-0.412085175514221","-0.822471857070923","0.0226513147354126"]]],"Biases":["0.97215747833252","-0.425359606742859","0.615011930465698"]}