{"Weights":[[["0.465193718671799","-0.639990329742432","-0.304652333259583","-0.208461165428162","-0.160097718238831","0.142919659614563","-0.0922132730484009"],["-0.136671185493469","-0.210785984992981","-0.00703251361846924","0.595541954040527","0.692531585693359","0.737836122512817","-0.675751447677612"],["0.445802420377731","-0.769275903701782","-0.243483185768127","0.223377585411072","-0.0314937829971313","0.0371710062026978","-0.667901515960693"],["-0.304646134376526","-0.339913725852966","-0.631268739700317","0.829576015472412","0.0749191045761108","0.732891798019409","0.498722761869431"],["-0.695170402526855","-0.545689821243286","0.878470182418823","-0.28436005115509","-0.578274011611938","0.2444828748703","-0.0402241945266724"],["0.143232703208923","-0.972084760665894","-0.416958689689636","0.536219835281372","0.760947465896606","0.191683173179626","0.903716087341309"],["-0.482426047325134","0.557682752609253","-0.189976572990417","0.891050577163696","0.253086537122726","0.772686004638672","-0.86925196647644"],["0.528954982757568","-0.0519510507583618","-0.847606420516968","-0.724648475646973","-0.354282736778259","-0.827130079269409","-0.769217967987061"],["0.1915682554245","-0.573885917663574","-0.544039487838745","-0.722208499908447","0.476211279630661","-0.418715596199036","-0.0567504167556763"],["-0.303103804588318","0.805711030960083","-0.857992887496948","-0.108156561851501","-0.579586744308472","-0.880585432052612","0.0968555212020874"],["0.503668785095215","0.593581676483154","-0.554365396499634","0.522794961929321","0.955073595046997","-0.554001808166504","0.26565620303154"]],[["-0.447238326072693","0.59508204460144","-0.918251514434814","0.530936241149902","0.433129042387009","0.585222721099854","0.812467575073242"],["-0.579340219497681","-0.682523488998413","0.0882209539413452","-0.39214551448822","-0.479891180992126","-0.386263489723206","0.230995774269104"],["-0.39664900302887","0.91483736038208","0.983128547668457","-0.402385354042053","-0.788377285003662","-0.453023552894592","-0.814984798431396"],["0.128599762916565","-0.107409119606018","0.864675045013428","0.670715808868408","0.398474663496017","0.502760648727417","-0.193406462669373"],["0.538558959960938","0.43697926402092","0.907851457595825","-0.631603002548218","-0.190703272819519","-0.9929358959198","0.495063036680222"],["0.644423246383667","0.511615753173828","0.337929457426071","0.262038439512253","0.519189357757568","0.756978988647461","-0.444424510002136"],["0.262586325407028","0.233622670173645","-0.847450494766235","0.616637229919434","0.73647141456604","0.13261353969574","-0.198938488960266"]],[["0.112767100334167","0.831174612045288","0.392148703336716"],["0.974823474884033","-0.208880066871643","-0.487662434577942"],["-0.149315237998962","0.365510433912277","-0.0879696607589722"],["0.545629024505615","0.192589163780212","-0.492319464683533"],["0.185428500175476","-0.0367528200149536","0.0580438375473022"],["0.409170597791672","0.236491322517395","-0.849031448364258"],["0.775172710418701","0.0430551767349243","-0.854165315628052"]]],"Biases":["0.698728322982788","-0.138277411460876","0.174837946891785"]}