{"Weights":[[["-0.171898484230042","0.903498649597168","0.0203217267990112","-0.568384647369385","0.294637888669968","0.870377779006958","-0.839574337005615"],["-0.318991303443909","-0.272990107536316","-0.644129276275635","0.60097074508667","0.778064489364624","0.272221773862839","0.628592014312744"],["0.928817987442017","-0.000240921974182129","0.312810391187668","0.519940376281738","0.0369209051132202","-0.936321496963501","0.574581384658813"],["-0.79229211807251","0.429309338331223","-0.537981748580933","-0.678141593933105","0.7837975025177","-0.653985738754272","-0.623363494873047"],["0.295423954725266","0.993729114532471","-0.963871717453003","0.500396966934204","-0.558764934539795","-0.00606381893157959","0.902461290359497"],["-0.365996718406677","0.357135742902756","-0.801000595092773","0.804326057434082","0.0291165113449097","-0.204942584037781","0.773353099822998"],["-0.848276853561401","0.625525951385498","0.58699369430542","0.970664501190186","0.417682141065598","-0.243553996086121","0.436113804578781"],["-0.608639001846313","0.895608425140381","0.839266061782837","0.188127875328064","0.197146534919739","-0.4449542760849","0.72996997833252"],["-0.602588176727295","-0.232172846794128","0.185058236122131","-0.855610847473145","-0.310209393501282","-0.269575715065002","0.646587133407593"],["-0.0652414560317993","0.505069732666016","0.634168386459351","0.468686074018478","-0.810436010360718","-0.969973802566528","-0.131636500358582"],["-0.869777679443359","0.561897039413452","0.247941374778748","0.200881123542786","-0.293691754341125","-0.759285688400269","0.253217905759811"]],[["-0.733508586883545","-0.944329261779785","0.244356513023376","0.494185417890549","-0.886670351028442","-0.144874453544617","0.181488871574402"],["0.409488409757614","0.738277912139893","-0.94692587852478","0.661316156387329","-0.735774755477905","-0.682494640350342","0.0643757581710815"],["0.222585558891296","-0.193753838539124","-0.447919726371765","0.932260274887085","-0.945228815078735","0.823375940322876","0.620255708694458"],["0.891449928283691","0.0920594930648804","-0.434810519218445","0.371343106031418","-0.908474445343018","0.870588541030884","-0.29917585849762"],["0.466283529996872","0.330310791730881","0.13295304775238","-0.408688426017761","0.402969092130661","-0.596815586090088","0.796597957611084"],["0.494562357664108","0.540882349014282","-0.319801211357117","0.318974703550339","0.132238268852234","0.702836275100708","0.414224356412888"],["-0.353598475456238","-0.142524838447571","0.742981433868408","-0.453266263008118","-0.6678147315979","0.256520479917526","-0.899998426437378"]],[["0.776874780654907","-0.52583384513855","-0.343114972114563"],["0.197850823402405","-0.333003878593445","-0.158977627754211"],["-0.624463319778442","-0.34307849407196","0.360176771879196"],["-0.741257905960083","-0.553084135055542","-0.517396450042725"],["0.739162921905518","-0.539652109146118","0.915990114212036"],["-0.106184840202332","-0.281756520271301","-0.998140335083008"],["-0.71485424041748","0.167606711387634","-0.127490162849426"]]],"Biases":["-0.724611282348633","-0.0208562612533569","-0.733396053314209"]}