{"Weights":[[["0.231751322746277","-1","0.275523275136948","0.353786915540695","0.452612280845642","0.0951043367385864","-0.869032621383667"],["0.0507427453994751","0.541661739349365","-0.267610430717468","-0.662851810455322","0.83507227897644","-0.181946635246277","0.226671814918518"],["-0.786285161972046","-0.0538914203643799","0.687265872955322","0.89927065372467","-0.574509620666504","-0.733770847320557","-0.638153553009033"],["0.0435515642166138","0.434342592954636","-0.160352826118469","1","0.218732446432114","-0.48439085483551","1"],["0.782431453466415","-0.230658292770386","0.217385649681091","0.47521635890007","0.956186771392822","1","-0.752257585525513"],["0.518388271331787","-1","-0.0579019784927368","0.590397477149963","0.628925085067749","0.502453804016113","-0.80869722366333"],["0.584819793701172","-0.294061064720154","0.307742089033127","-0.616915225982666","-0.162530779838562","-0.285244584083557","-0.999283313751221"],["-0.100224614143372","-1","-1","-1","-0.558386325836182","0.136194348335266","0.728206396102905"],["-0.989184856414795","0.583618402481079","-0.115430593490601","-0.607534885406494","0.614078879356384","1","-0.70942485332489"],["0.988530844449997","0.526578843593597","-0.428332686424255","0.83246636390686","0.591551661491394","0.593366146087646","-0.495578914880753"],["-0.368375420570374","-0.608646869659424","0.592354148626328","0.57201075553894","-0.0239208936691284","-0.17132568359375","-0.443741083145142"]],[["-0.320625424385071","-0.315829873085022","-0.10506284236908","0.903262138366699","-0.177318930625916","-0.506378412246704","-0.887652516365051"],["-0.172320961952209","1","-0.984648466110229","0.0305837392807007","-0.0240336656570435","0.24822211265564","0.818214893341064"],["0.0920029878616333","0.505095243453979","-0.914822578430176","-0.332367062568665","-0.640369892120361","-0.867957592010498","0.29656121134758"],["-0.486653447151184","-0.701980113983154","-1","-0.822514414787292","0.0488613843917847","0.87826132774353","-0.0412335395812988"],["0.133374333381653","0.518195629119873","0.682380199432373","0.66216766834259","0.818666219711304","-0.788097381591797","0.47552689909935"],["0.129088997840881","-0.01020348072052","0.502078294754028","-0.0498884916305542","1","-0.849989175796509","-0.426200985908508"],["0.198689103126526","-1","0.698963284492493","-0.0886763334274292","-0.975054502487183","1","1"]],[["-0.754164457321167","-0.533674716949463","-0.250208497047424"],["-0.180581569671631","0.0828582048416138","1"],["-0.265754580497742","-0.858580589294434","-1"],["0.515610456466675","-0.573081016540527","0.368225812911987"],["-0.291434645652771","0.995864391326904","0.419758766889572"],["-1","0.834265828132629","-0.156827569007874"],["0.443184942007065","-0.254225373268127","-0.18332576751709"]]],"Biases":["-0.0916222333908081","-0.168710827827454","0.00461351871490479"]}