{"Weights":[[["0.167198032140732","-1","-0.256240636110306","0.746185481548309","0.022579550743103","1","1"],["-0.750871658325195","-0.774407505989075","1","-0.294179320335388","-0.558946490287781","-0.160537600517273","1"],["0.862035989761353","0.425042003393173","-0.645267128944397","-1","-0.135212182998657","-0.911402225494385","-0.842542290687561"],["1","1","0.575275182723999","-0.78669261932373","0.252386927604675","0.55987274646759","0.198490381240845"],["1","-0.840043216943741","0.0726037919521332","-1","1","0.89300012588501","-0.00714066624641418"],["-1","0.680760264396667","0.665993690490723","0.198226809501648","-0.118739724159241","-0.0182982683181763","-1"],["0.489404201507568","0.42985463142395","-0.385540008544922","0.561234831809998","-0.0556654930114746","1","0.442187517881393"],["-0.277832865715027","1","0.71512895822525","0.460926413536072","-0.323448181152344","-0.711135625839233","1"],["-0.0342733860015869","0.750057309865952","1","1","-1","0.560368180274963","0.0193972587585449"],["1","-0.1690274477005","0.105722069740295","0.115086287260056","-0.308217287063599","-0.201469898223877","-0.30096971988678"],["-0.311708837747574","-1","-0.953771114349365","0.393667221069336","0.234478950500488","0.325637549161911","-0.00250017642974854"]],[["-0.593827366828918","-0.108079791069031","0.455120176076889","1","1","-0.343571454286575","0.426962107419968"],["-1","-0.534901738166809","-0.380581974983215","0.603950023651123","-1","0.307031154632568","-0.0680390596389771"],["1","-0.979051947593689","0.2547627389431","-0.325463533401489","-0.870090126991272","-0.731551438570023","-0.568620562553406"],["0.954334497451782","-1","-1","-0.409425258636475","0.100217700004578","0.59664112329483","1"],["-0.808359742164612","0.5894535779953","0.805472075939178","0.148100614547729","-1","0.98506435751915","-1"],["0.342495918273926","-0.675302147865295","0.611400127410889","-0.265503644943237","-0.596227049827576","-0.276732921600342","0.883474469184875"],["0.0982856452465057","0.02069091796875","0.963953107595444","-1","1","-0.269181400537491","-0.996514201164246"]],[["-0.483090281486511","-1","-0.507158875465393"],["-0.0742189884185791","0.613479912281036","0.847131699323654"],["0.262439697980881","0.960239052772522","0.39724600315094"],["0.486833453178406","1","-0.272345662117004"],["-0.0911494493484497","-0.523595213890076","1"],["-0.0355713367462158","-0.917347073554993","0.2754747569561"],["-0.209369897842407","1","1"]]],"Biases":["-0.0218137502670288","-0.440234541893005","0.919467210769653"]}