{"Weights":[[["0.167198032140732","-1","-0.256240636110306","0.746185481548309","0.022579550743103","1","1"],["-0.750871658325195","-0.774407505989075","1","-0.294179320335388","-0.558946490287781","-0.160537600517273","1"],["0.862035989761353","0.425042003393173","-0.645267128944397","-1","-0.135212182998657","-0.911402225494385","-0.842542290687561"],["1","1","0.575275182723999","-0.78669261932373","0.252386927604675","0.55987274646759","0.198490381240845"],["1","-0.840043216943741","0.0726037919521332","-1","1","0.89300012588501","-0.00714066624641418"],["-1","1","0.665993690490723","0.198226809501648","-0.118739724159241","-0.0182982683181763","-1"],["0.489404201507568","0.42985463142395","0.295618057250977","0.561234831809998","-0.0556654930114746","1","0.442187517881393"],["-0.277832865715027","1","0.71512895822525","0.460926413536072","-0.323448181152344","-0.054236888885498","1"],["-0.0342733860015869","0.494071692228317","1","1","-1","0.560368180274963","0.0193972587585449"],["1","-0.1690274477005","0.105722069740295","0.115086287260056","-0.308217287063599","-0.201469898223877","0.442197680473328"],["-0.311708837747574","-1","-0.953771114349365","0.393667221069336","0.234478950500488","0.325637549161911","-0.00250017642974854"]],[["-0.593827366828918","0.0704975128173828","0.455120176076889","0.914555311203003","0.650474429130554","-0.343571454286575","0.426962107419968"],["-1","-0.460723161697388","-1","1","-1","0.307031154632568","0.741049528121948"],["1","-0.326144933700562","-0.544903665781021","-0.366251111030579","-0.0947026014328003","-1","-0.872865825891495"],["0.298240900039673","-0.52256166934967","-1","-0.163769960403442","-0.628707051277161","0.59664112329483","1"],["0.141530394554138","-0.143498063087463","0.805472075939178","0.148100614547729","-0.899886131286621","1","-1"],["0.342495918273926","-0.169592261314392","0.611400127410889","-0.896902203559875","-0.596227049827576","-1","0.66512593626976"],["0.297885745763779","0.797211170196533","0.699871420860291","-0.11858344078064","1","0.0613864362239838","-0.996514201164246"]],[["-0.483090281486511","-1","-0.507158875465393"],["-0.0742189884185791","0.613479912281036","0.847131699323654"],["0.262439697980881","0.960239052772522","1"],["0.486833453178406","1","-0.272345662117004"],["-0.0911494493484497","-0.523595213890076","0.759681940078735"],["-0.0355713367462158","-0.917347073554993","0.2754747569561"],["-0.209369897842407","1","1"]]],"Biases":["-0.0218137502670288","-0.440234541893005","0.919467210769653"]}