{"Weights":[[["-0.62532377243042","0.811944961547852","-0.503838539123535","-0.573147177696228","1","0.377515524625778","0.353124588727951","0.613831639289856"],["-0.489926695823669","-0.926245212554932","0.118203997612","-0.833239555358887","0.645015239715576","0.258989781141281","-0.297986149787903","0.55527925491333"],["0.593244791030884","0.248772025108337","-0.249187111854553","0.93973183631897","-0.40910542011261","-0.935045719146729","-0.289320588111877","-0.913718461990356"],["-0.634965419769287","0.289707630872726","-0.614160060882568","-0.0307615995407104","0.663778066635132","0.713333964347839","-0.748337030410767","-0.164454817771912"],["0.431506842374802","0.0325566232204437","-0.95445704460144","0.732826709747314","0.612356424331665","0.879545450210571","-0.577846765518188","-0.919402122497559"],["-0.0427214205265045","-1","0.0167486667633057","0.165925621986389","-0.0252867937088013","0.236853003501892","-0.17720353603363","0.660017967224121"],["0.936450004577637","0.438040465116501","0.521098375320435","-0.0208412408828735","0.110077977180481","0.256941646337509","0.36334154009819","0.426310271024704"],["-0.501649618148804","-0.315942883491516","-0.135129570960999","0.325106352567673","0.685044050216675","-0.924742221832275","-0.865228176116943","-0.460481524467468"],["-0.960121631622314","0.140025734901428","-0.781243801116943","-0.132303953170776","-0.83144211769104","-1","-0.922457695007324","-0.242278695106506"],["-0.37001645565033","0.367320030927658","0.909301042556763","-0.15510094165802","-1","-0.827471971511841","0.526731729507446","-0.131394743919373"],["0.974384546279907","0.00986933708190918","-0.912584900856018","0.56998872756958","-0.966570377349854","0.965593814849854","-0.466570496559143","0.203333467245102"],["0.168363094329834","-0.679984569549561","0.950144290924072","0.181647419929504","0.685534477233887","0.0776158571243286","-0.227086663246155","-0.0644367933273315"]],[["0.418757885694504","-0.75631856918335","-0.735135912895203","0.830193042755127","-0.86510443687439","-0.481165528297424","0.37532651424408","1"],["1","0.620058238506317","-0.880965113639832","-0.388174772262573","0.583958148956299","-1","0.404995769262314","-0.482527613639832"],["0.685312926769257","-0.820213556289673","0.336979478597641","-0.61061429977417","0.565574169158936","-0.65619957447052","-0.439256548881531","-1"],["1","-0.994759321212769","-0.129435896873474","0.0949338674545288","0.456901043653488","-0.669570684432983","0.0708049535751343","-0.161143809556961"],["0.478060930967331","-0.0999982357025146","0.0416634976863861","0.0753306150436401","-0.214142829179764","-0.973935127258301","-0.140985608100891","-0.0213643312454224"],["1","0.889531791210175","0.896589040756226","-1","0.0336183309555054","0.359237194061279","-0.554766654968262","0.898755669593811"],["-0.940964579582214","-1","1","1","0.554663062095642","0.437142103910446","-0.028560996055603","-0.487702488899231"],["1","0.860005736351013","-0.308168202638626","-0.523432016372681","-1","-1","0.548425674438477","0.0104656219482422"]],[["-0.409975051879883","1","-0.393435478210449"],["0.931564569473267","-0.287816643714905","1"],["0.898324489593506","-0.712500810623169","-0.0278593301773071"],["-0.388874053955078","0.66343891620636","-0.16065576672554"],["-0.60795059800148","-0.503266721963882","-0.281555205583572"],["-0.61408793926239","-1","1"],["0.639262199401855","1","0.84473443031311"],["1","-0.58320140838623","0.454947233200073"]]],"Biases":["0.0428553819656372","0.794804811477661","-0.52814769744873"]}