{"Weights":[[["0.144949316978455","-0.722539901733398","-0.230721354484558","0.718280553817749","0.906689643859863","-0.974887371063232","0.158260941505432","-0.0764058828353882","0.777364492416382","-0.577097415924072","-0.508155822753906","0.428879469633102","0.655084848403931"],["0.829716414213181","0.12102398276329","0.691695928573608","0.0684167146682739","0.600643157958984","-0.064778208732605","0.503751516342163","0.345149487257004","-0.899832010269165","-0.488455176353455","-0.27130925655365","-0.778019189834595","-0.207328915596008"],["0.858418941497803","-0.147186160087585","-0.462867140769959","0.544909954071045","-0.689427614212036","0.999357938766479","-0.0912703275680542","0.703341245651245","-0.0838347673416138","-0.45251989364624","0.430638760328293","0.182972073554993","0.89271354675293"],["0.823708057403564","-0.824864864349365","0.359190434217453","-0.859365224838257","-0.141681313514709","0.0740965604782104","0.775649547576904","-0.156687378883362","-0.94394862651825","-0.544248580932617","0.566070079803467","0.257920235395432","-0.740063428878784"],["-0.67907452583313","-0.94719672203064","-0.512879371643066","0.654430389404297","-0.03954017162323","-0.527676343917847","0.738198518753052","0.973071098327637","0.48663517832756","-0.202554106712341","0.0956157445907593","-0.359997987747192","-0.263433814048767"],["-0.670458078384399","-0.441465973854065","-0.233862996101379","-0.583750009536743","-0.012971043586731","0.452024906873703","-0.93198025226593","0.688539981842041","0.516806602478027","-0.545079231262207","-0.327248454093933","0.0187259912490845","-0.423179864883423"],["0.54740571975708","-0.301088213920593","-0.215311408042908","0.782931566238403","-0.869937419891357","0.0724385976791382","-0.659819602966309","1","-0.558133006095886","0.368312567472458","0.466389387845993","0.0274094343185425","-0.506005048751831"],["-0.298152565956116","-0.552026748657227","-0.31044614315033","0.452608317136765","0.92807936668396","0.214934706687927","0.623055696487427","0.0542073249816895","-0.0279985666275024","0.394985646009445","0.0776885747909546","0.664047718048096","-0.423602223396301"],["-0.902317523956299","0.295223444700241","0.939204216003418","0.26970574259758","-0.874546885490417","0.2957863509655","-0.771878242492676","0.129652857780457","0.243695139884949","-0.951583385467529","-0.207294344902039","0.492305487394333","0.1652911901474"],["-0.635199546813965","-0.71859884262085","-0.919910430908203","-0.526597499847412","0.0684248208999634","-0.762312650680542","-0.0137053728103638","0.491692990064621","0.363451689481735","-0.0164879560470581","-0.574651718139648","-0.334752321243286","-0.00224459171295166"],["0.725384950637817","-0.549660205841064","0.430614590644836","0.0553106069564819","-0.362021803855896","0.95978856086731","-0.383890509605408","-0.401744246482849","-0.959638833999634","0.142376303672791","0.422613114118576","0.721603631973267","-0.676559448242188"],["0.649978876113892","0.321226567029953","-0.0204595327377319","0.0710242986679077","-0.32559597492218","-0.504427552223206","-0.702107906341553","-0.359855890274048","0.437464207410812","-0.439381957054138","1","-0.311920523643494","-0.79567289352417"],["0.470039337873459","-0.931229829788208","-0.320664525032043","0.921022653579712","-0.297191023826599","0.725766658782959","0.455370038747787","-0.195640206336975","0.373716562986374","0.364927977323532","0.64131236076355","0.306494683027267","-0.160227656364441"],["-0.284921407699585","-0.928726673126221","-0.314424633979797","-0.263019680976868","-0.960193395614624","-0.139360547065735","-0.110150933265686","-0.933070182800293","0.0178390741348267","-0.662753582000732","-0.349886536598206","0.315871208906174","-0.885504722595215"],["0.662904024124146","-0.168722033500671","-0.418263077735901","0.676104068756104","-0.921559810638428","-0.650614261627197","-0.305241227149963","0.606716841459274","0.490212172269821","1","-0.378326773643494","-0.272855401039124","0.00775682926177979"],["-0.355605006217957","0.420925587415695","0.371594876050949","-0.0678058862686157","-0.204122424125671","-0.43194568157196","0.931707143783569","0.857806921005249","0.0476647615432739","-0.00401198863983154","0.919533729553223","-0.5532066822052","-0.589712023735046"],["-0.305906563997269","-0.367143511772156","0.653585910797119","1","-0.893085122108459","0.82546854019165","1","-0.521185636520386","0.93502140045166","-0.0998424291610718","-0.387768149375916","-0.350077509880066","0.851744413375854"]],[["-0.154250741004944","-0.973957061767578","0.15471076965332","0.700129985809326","-0.512704640626907","0.291218727827072","-0.31682014465332","0.357698887586594","0.113224744796753","-1"],["0.502767086029053","0.123984217643738","0.820294260978699","1","0.834594964981079","-0.938524961471558","1","-0.43668520450592","-1","-0.638368844985962"],["0.677586793899536","-0.526290446519852","-0.710222959518433","0.221042037010193","-0.345870614051819","-0.573920726776123","-0.402732729911804","0.365254372358322","-0.235303282737732","-0.624333143234253"],["0.981956720352173","0.506131172180176","-0.0107859373092651","0.160517334938049","0.197444081306458","-0.835407972335815","-0.0374086201190948","0.0282133817672729","-0.877776503562927","0.523023366928101"],["-0.0258204936981201","0.090267539024353","-0.296215653419495","-0.29738986492157","0.635951519012451","-0.905344009399414","-0.808446764945984","0.187085747718811","-0.1596759557724","-0.960134506225586"],["-0.987578272819519","-0.863524675369263","0.283023089170456","-0.704323291778564","0.775433540344238","0.811431407928467","-0.380480408668518","-0.494826555252075","-0.929085493087769","-0.202739626169205"],["0.469927281141281","0.697157382965088","0.964751720428467","0.433698385953903","0.680972993373871","0.219503998756409","-0.939049601554871","-0.771331310272217","0.904450505971909","-0.0400389432907104"],["-0.120829939842224","0.824700713157654","-0.123079657554626","-0.128664374351501","-0.436843514442444","-0.752400159835815","0.049385666847229","-0.359495043754578","-0.288762837648392","-0.735454082489014"],["-0.393944621086121","0.190760940313339","0.0493046045303345","0.0100587606430054","0.107694506645203","0.877130031585693","-0.421469569206238","-0.521090030670166","0.875868320465088","0.515308141708374"],["0.22385585308075","0.459040135145187","0.440485686063766","0.281391829252243","0.792202949523926","0.942763328552246","0.771528720855713","0.334811091423035","-0.274182677268982","-0.356842637062073"],["-0.361008048057556","0.376697152853012","0.825367212295532","-1","0.262300133705139","0.511237382888794","0.990264773368835","0.231686234474182","0.0491605997085571","-0.557973623275757"],["0.912548065185547","0.592893362045288","0.698340177536011","0.0770977735519409","-0.129996180534363","-0.14764478802681","-0.655993223190308","-1","0.113759398460388","-0.508479386568069"],["-0.0719887018203735","-0.793871641159058","0.345865696668625","-0.638246059417725","-0.343434691429138","-0.104225397109985","-0.638563871383667","0.209757924079895","0.996032238006592","-0.908203840255737"]],[["-0.0178512334823608","-0.546888828277588","-0.0985809564590454","-0.860778093338013","0.504026979207993","-0.698525190353394","-0.984197378158569","-0.294388651847839"],["0.432658165693283","-0.112012505531311","-0.0700887441635132","0.182296395301819","0.938874244689941","-0.092556357383728","0.186200976371765","0.241669654846191"],["0.147526860237122","-0.536569833755493","-0.344343543052673","-1","-0.0562187433242798","0.402042120695114","0.826622724533081","-0.349077343940735"],["-0.241313338279724","0.402085661888123","-0.461161971092224","0.406861990690231","0.371957510709763","-0.551351547241211","0.61671194434166","-0.98079252243042"],["0.343013256788254","-1","-0.766503810882568","0.436215162277222","0.0755783319473267","-0.873225212097168","0.534510135650635","0.878655195236206"],["0.674697995185852","0.460653513669968","0.80146050453186","0.0829697847366333","0.126307606697083","0.907949805259705","0.801389217376709","0.791268348693848"],["0.502514839172363","-0.586328983306885","-0.575090885162354","0.0915979146957397","-1","0.630277872085571","0.809091091156006","0.000129550695419312"],["-0.762141942977905","-0.540029287338257","-0.128961443901062","1","-0.0756312608718872","0.548567533493042","-0.404039740562439","0.637950897216797"],["-0.127380728721619","-0.270004630088806","-0.286449790000916","1","0.747463583946228","-0.528603792190552","0.102980494499207","0.739187836647034"],["1","0.804629325866699","-0.23803174495697","0.533454060554504","0.88066554069519","0.811517477035522","0.0403169393539429","-0.0101709365844727"]],[["0.519218444824219","0.170230269432068","-0.478064894676209"],["-0.789307594299316","-0.686949014663696","-0.169658094644547"],["-0.0467900037765503","0.925782203674316","0.347152203321457"],["0.489488333463669","-1","-0.407742977142334"],["-1","1","0.497786015272141"],["0.254140108823776","0.568914175033569","0.12442409992218"],["-0.922942757606506","0.271707534790039","-0.0288711786270142"],["-1","1","0.760889291763306"]]],"Biases":["-0.742567777633667","-0.512427806854248","0.19887363910675","0.835372447967529"]}