{"Weights":[[["0.511030197143555","0.544694185256958","0.193761229515076","-0.0539790391921997","0.0355607271194458","0.612909317016602","-0.428167462348938","0.0729399919509888","0.970384120941162","-0.669270753860474","-0.695798635482788","0.681796073913574","-0.0130828619003296"],["-0.608082056045532","0.935826063156128","-0.625649690628052","-0.2807537317276","-0.956371068954468","0.616028070449829","-0.689083814620972","-0.233674645423889","0.290408104658127","0.959559440612793","-0.697391510009766","0.732723236083984","-0.236671328544617"],["0.583556175231934","0.0996392965316772","-0.332564949989319","-0.476068139076233","-0.427638649940491","-0.993932962417603","-0.212910056114197","0.0152298212051392","0.842598438262939","-0.184832453727722","-0.714430809020996","0.773643255233765","-0.133322834968567"],["0.251216381788254","-0.486884474754334","0.722899675369263","-0.309586882591248","-0.521748065948486","-0.401993155479431","-0.350760817527771","0.455472439527512","0.306616991758347","0.941015958786011","-0.617634534835815","0.290058821439743","0.52125096321106"],["-0.686873435974121","-0.831036567687988","0.666006326675415","0.385380476713181","0.0523644685745239","-0.446951985359192","0.705541610717773","-0.562021970748901","0.677713632583618","0.808276414871216","-0.61787486076355","0.757748603820801","0.710521221160889"],["-0.647876501083374","-0.731638669967651","-0.401472687721252","0.281183928251266","0.449167221784592","0.974230527877808","0.827450275421143","0.538600206375122","0.246583819389343","-0.157098174095154","-0.37847363948822","0.0535129308700562","0.688059329986572"],["0.789065361022949","-0.891535997390747","-0.372764229774475","0.466166466474533","-0.235346674919128","0.649166107177734","0.230226635932922","0.684692621231079","0.87767767906189","0.779494047164917","0.808340072631836","0.408053606748581","-0.712568998336792"],["0.589254856109619","0.641809225082397","0.52876615524292","0.158832192420959","-0.257257580757141","-0.316139101982117","0.978664636611938","-0.430462718009949","-0.520627737045288","-0.509614706039429","0.472461670637131","0.384150713682175","-0.913177728652954"],["-0.0431109666824341","-0.636554718017578","0.996184587478638","0.216025710105896","-0.359604477882385","0.478534191846848","-0.907742500305176","-0.358608841896057","-0.877336978912354","0.918568849563599","-0.634332895278931","-0.706746339797974","-0.97728705406189"],["-0.419804692268372","-0.448531985282898","0.382760256528854","0.752297878265381","0.505981206893921","-0.0974429845809937","-0.286524415016174","-0.751278162002563","-0.38912045955658","-0.25703227519989","0.788833379745483","0.823203086853027","0.115729451179504"],["-0.219057202339172","0.225907444953918","0.171994805335999","-0.86702823638916","-0.482277035713196","-0.592842817306519","-0.476684927940369","-0.584319353103638","-0.796973705291748","0.0545386075973511","-0.84062123298645","-0.071165919303894","-0.283128619194031"],["-0.174548983573914","0.490602940320969","0.90682315826416","-0.795196056365967","-0.183139681816101","0.275285452604294","0.237757086753845","0.413169592618942","0.862172603607178","0.291032046079636","0.916744232177734","-0.618101119995117","0.928725481033325"],["0.924972772598267","-0.71308422088623","0.67067551612854","-0.59312105178833","-0.25339686870575","-0.933192729949951","0.984371662139893","0.153235793113709","-0.285681843757629","-0.627154111862183","-0.0679343938827515","0.714122295379639","-0.0931445360183716"],["0.258978575468063","-0.834543466567993","0.180893063545227","0.237500309944153","-0.0838614702224731","-0.0431379079818726","0.350698918104172","0.658753395080566","-0.0677756071090698","-0.702207803726196","0.312416762113571","0.53016996383667","0.776439666748047"],["0.077161431312561","-0.44930899143219","0.767920970916748","-0.296721816062927","-0.124662756919861","0.00564324855804443","0.550886869430542","0.530788898468018","-0.142762780189514","-0.0767685174942017","-0.540923595428467","0.39367863535881","-0.673174381256104"],["0.034211277961731","0.817697763442993","0.470191210508347","-0.772355079650879","-0.18988835811615","-0.975562572479248","-0.0385478734970093","0.842530250549316","0.409072130918503","0.9878089427948","-0.613362312316895","-0.557853937149048","-0.966272115707397"],["-0.919302940368652","0.859970569610596","-0.464717030525208","-0.822133779525757","-0.207538247108459","0.625576257705688","-0.0793601274490356","0.598488092422485","-0.797636747360229","0.950892210006714","-0.057364821434021","-0.248157620429993","-0.628334045410156"]],[["0.334923952817917","-0.787086725234985","0.696895837783813","-0.608969926834106","0.732932329177856","-0.0676494836807251","0.680601358413696","-0.230617642402649","-0.787671566009521","-0.814526081085205"],["-0.912262439727783","0.648858070373535","-0.640711545944214","0.963867425918579","0.588637351989746","-0.5479896068573","0.606226682662964","0.242664694786072","-0.352840304374695","0.369105070829391"],["-0.686053991317749","-0.0409787893295288","0.0307964086532593","-0.616669893264771","-0.528095006942749","-0.575035333633423","0.184137940406799","0.934017181396484","-0.844319105148315","0.550143957138062"],["0.385446518659592","0.129233002662659","0.139696002006531","-0.859729290008545","0.710525751113892","-0.241953492164612","0.875941276550293","-0.364846348762512","0.232616543769836","0.771827936172485"],["-0.481398224830627","0.575181007385254","-0.501263856887817","-0.963391780853271","-0.157874941825867","0.244572997093201","-0.510585069656372","-0.587369441986084","-0.741826295852661","0.0220690965652466"],["0.979027509689331","-0.925233840942383","0.440947026014328","-0.500829696655273","-0.400381445884705","-0.644728422164917","0.4185890853405","0.334468811750412","-0.10034453868866","0.874860286712646"],["0.79551887512207","0.633800268173218","-0.710452318191528","-0.59756326675415","-0.707568168640137","0.736553192138672","0.415926426649094","-0.555289745330811","-0.869345426559448","-0.0397931337356567"],["0.524778604507446","0.410726517438889","-0.0103963613510132","0.0713390111923218","0.890839576721191","0.295207470655441","0.436702698469162","-0.0823529958724976","0.558762311935425","0.190950512886047"],["-0.813201189041138","0.100236296653748","0.606573820114136","-0.560115575790405","0.828112363815308","0.652013063430786","0.107236504554749","-0.517698526382446","0.64731764793396","0.160359025001526"],["0.367459982633591","-0.100484251976013","0.957359790802002","0.661367654800415","-0.818466186523438","0.413352459669113","-0.750202894210815","-0.889141082763672","-0.595479726791382","0.688945055007935"],["-0.423282742500305","0.884766817092896","0.829658269882202","-0.762150764465332","-0.455458283424377","0.74577784538269","-0.939262628555298","0.514933824539185","-0.899661302566528","0.67939305305481"],["-0.634608745574951","-0.902897119522095","-0.163869738578796","0.275912970304489","-0.948138475418091","-0.0363527536392212","0.652347326278687","0.804795026779175","-0.182872414588928","0.43001601099968"],["0.38761231303215","-0.715954780578613","-0.12420380115509","0.11530864238739","-0.670258283615112","0.853773593902588","-0.372230887413025","-0.560103893280029","0.188566565513611","-0.755233287811279"]],[["-0.44194233417511","-0.231849312782288","0.331936091184616","-0.464579224586487","-0.549194812774658","0.533121824264526","0.0563315153121948","0.3433937728405"],["0.00965964794158936","0.550890207290649","0.136184334754944","0.345133751630783","-0.700793504714966","-0.440410733222961","0.740670680999756","0.473414152860641"],["0.755618095397949","-0.878386259078979","0.497457712888718","-0.12687623500824","-0.774807929992676","-0.777157068252563","0.72911262512207","0.162437081336975"],["0.816270351409912","0.439237803220749","0.135155320167542","-0.440523266792297","-0.056822657585144","0.892742395401001","0.64820408821106","-0.964594125747681"],["-0.680406332015991","0.683299779891968","-0.59787654876709","-0.437577366828918","0.967292308807373","0.140846371650696","0.499498099088669","-0.265115857124329"],["-0.253991961479187","0.616533756256104","0.0203026533126831","0.156638026237488","0.236840128898621","-0.893064260482788","0.252470463514328","0.593758106231689"],["0.307337254285812","0.624866008758545","0.0556753873825073","0.693819522857666","-0.123193383216858","-0.0373684167861938","0.619783163070679","-0.620255708694458"],["-0.557521104812622","-0.763266324996948","-0.92047905921936","-0.595175266265869","-0.739099502563477","0.383203238248825","0.770831108093262","-0.0959213972091675"],["0.916341543197632","0.593734502792358","-0.521464586257935","-0.182912945747375","0.133653044700623","0.782976865768433","-0.15366542339325","-0.434723496437073"],["-0.137173056602478","0.568647861480713","-0.0867766141891479","-0.492677569389343","-0.323635697364807","0.182505249977112","-0.8675217628479","0.903392791748047"]],[["0.266219109296799","-0.96419095993042","0.0433677434921265"],["0.204494595527649","-0.385889887809753","0.833538055419922"],["-0.527816534042358","0.943108558654785","-0.758468151092529"],["-0.70446515083313","-0.420158505439758","0.537822008132935"],["-0.958003997802734","0.0666271448135376","0.280382841825485"],["0.521286249160767","-0.258378148078918","-0.865458488464355"],["0.342535465955734","0.416620463132858","0.836094379425049"],["0.661937952041626","0.052453875541687","-0.115014672279358"]]],"Biases":["-0.928810358047485","0.155807614326477","-0.755292177200317","0.401528090238571"]}