{"Weights":[[["-0.630228996276855","0.556758880615234","-0.453415274620056","-0.755904197692871","-0.35466468334198","0.86580491065979","0.783105134963989","0.293718069791794","-0.707810878753662","0.690780401229858","0.922912359237671","-0.776089668273926","0.0496033430099487"],["0.806669235229492","0.277034968137741","0.158753752708435","0.752959489822388","0.652399778366089","0.131464600563049","-0.984630584716797","0.833010673522949","-0.0669649839401245","-0.154988408088684","0.690243244171143","-0.142785906791687","0.0507639646530151"],["0.240714907646179","-0.767764091491699","0.720662832260132","-0.168148875236511","0.44266077876091","0.668325901031494","-0.658135890960693","-0.508602619171143","0.549746513366699","0.140557408332825","-0.362853646278381","0.277923315763474","0.284221619367599"],["0.0668431520462036","-0.983678579330444","0.877016544342041","0.174543023109436","0.130391955375671","-0.698764085769653","0.137216210365295","-0.855082273483276","-0.231123805046082","0.785952091217041","0.612205266952515","-0.562809467315674","-0.148598790168762"],["0.662927389144897","-0.770443916320801","-0.703201770782471","0.0627759695053101","0.646130084991455","-0.679022312164307","-0.0862342119216919","-0.278882384300232","-0.433350682258606","0.00214874744415283","-0.0831271409988403","0.708917617797852","0.882400035858154"],["-0.826056957244873","-0.405625939369202","-0.320466160774231","-0.839545011520386","-0.274776339530945","0.871141910552979","0.581050634384155","-0.946358680725098","-0.125735878944397","0.742805957794189","-0.604844570159912","0.893145799636841","-0.336895346641541"],["-0.909603357315063","-0.905488967895508","0.632376432418823","0.950538396835327","0.527078866958618","-0.983732461929321","-0.937205791473389","0.608165502548218","0.298856467008591","-0.760868549346924","-0.376907706260681","-0.759681940078735","0.370002716779709"],["0.33577772974968","0.418774336576462","-0.604082107543945","-0.152807831764221","0.819206476211548","0.673009634017944","-0.222892165184021","0.0285087823867798","-0.23050582408905","0.795273303985596","-0.0375159978866577","0.962937355041504","0.0462304353713989"],["0.152966380119324","-0.795848369598389","0.465900391340256","-0.745436191558838","-0.459739089012146","-0.646563768386841","0.311641901731491","0.247967123985291","-0.641952991485596","-0.810795307159424","-0.746267080307007","0.277502983808517","0.0402532815933228"],["0.675638437271118","0.144050240516663","-0.438171029090881","-0.550818681716919","0.193352341651917","0.384745329618454","-0.126256346702576","-0.263363003730774","-0.214298129081726","-0.958613395690918","0.569817304611206","0.26042839884758","0.298278540372849"],["-0.919116735458374","-0.898257493972778","0.210822463035584","-0.750123262405396","-0.74698805809021","-0.137579560279846","-0.272953152656555","0.387398689985275","0.393756836652756","0.820930480957031","-0.594847202301025","0.00252974033355713","0.24511182308197"],["0.498938292264938","-0.667427539825439","-0.320316195487976","-0.527604103088379","-0.894658088684082","-0.744927167892456","0.0852755308151245","-0.361309170722961","-0.620320320129395","-0.0626872777938843","0.318055361509323","-0.00785863399505615","0.487331122159958"],["-0.367343783378601","0.774539470672607","0.91168737411499","0.818245887756348","0.818475723266602","0.194528937339783","-0.176589131355286","0.397153824567795","-0.861449003219604","0.720886707305908","0.807499647140503","0.0684047937393188","-0.454348921775818"],["0.221720576286316","-0.935991048812866","-0.823879241943359","-0.70563530921936","0.0310271978378296","-0.985870599746704","-0.701206922531128","-0.31974184513092","-0.671789646148682","-0.0755645036697388","0.714399814605713","0.656325340270996","0.933297872543335"],["0.576834917068481","-0.2863849401474","0.81279730796814","0.730459928512573","0.836103200912476","-0.927083492279053","-0.452371716499329","-0.321441292762756","-0.442232251167297","-0.725020408630371","0.928749799728394","0.199901223182678","-0.461533188819885"],["0.328637093305588","0.931613206863403","0.798962116241455","0.346621483564377","0.518506526947021","0.552073955535889","0.438445538282394","-0.229523301124573","0.80870795249939","0.831819534301758","-0.101576685905457","-0.233600974082947","0.00431454181671143"],["-0.401104807853699","-0.511397361755371","-0.172129988670349","-0.112238526344299","-0.954590559005737","-0.00545608997344971","0.994595289230347","0.968450307846069","-0.533528327941895","-0.355976700782776","0.880614042282104","0.636234283447266","0.153385996818542"]],[["-0.302929043769836","0.57377552986145","-0.721342086791992","0.739477157592773","0.0217338800430298","-0.342232346534729","-0.32539689540863","-0.26274573802948","-0.303711771965027","-0.201502919197083"],["-0.0634926557540894","0.944900512695313","0.0200473070144653","0.113123536109924","0.522027730941772","-0.596900224685669","0.269495934247971","0.58488130569458","-0.85132884979248","-0.223150849342346"],["0.327646464109421","-0.22526490688324","0.979748964309692","-0.316664099693298","-0.999777793884277","0.923783540725708","0.590472459793091","-0.465695738792419","0.719531774520874","-0.895946741104126"],["0.737457036972046","-0.76570987701416","0.578905344009399","0.657611131668091","0.175509095191956","-0.222181677818298","-0.781218767166138","0.456176728010178","-0.658984661102295","-0.714914798736572"],["0.28470441699028","0.378796547651291","-0.680183887481689","-0.882628679275513","-0.305842280387878","-0.235030293464661","-0.784577608108521","0.715722560882568","-0.181894659996033","0.534407138824463"],["-0.650232315063477","0.086551308631897","-0.194180369377136","-0.25604259967804","0.479162186384201","0.668785095214844","0.00123107433319092","-0.903007745742798","0.884887218475342","-0.77206826210022"],["0.0336414575576782","0.973477363586426","-0.563961267471313","0.806769132614136","-0.662274837493896","0.6932053565979","0.563227891921997","0.0487021207809448","0.323278397321701","-0.5986008644104"],["0.905984401702881","0.792173385620117","0.264545887708664","-0.532639980316162","-0.248159289360046","-0.477503657341003","-0.637001037597656","0.738965749740601","0.574988126754761","0.822774410247803"],["-0.314931988716125","0.523481607437134","-0.81988787651062","0.525827169418335","-0.0125783681869507","0.0165754556655884","0.453401297330856","-0.361878514289856","0.830021619796753","0.230031609535217"],["0.780298948287964","-0.320539832115173","0.506575107574463","0.843192338943481","-0.403682827949524","0.495431631803513","0.19866955280304","-0.734671592712402","0.105803608894348","0.689991235733032"],["0.788024425506592","-0.305371403694153","0.111736416816711","0.503793716430664","0.761114120483398","-0.873468160629272","0.324873417615891","0.474603146314621","-0.679634094238281","0.640712261199951"],["-0.53874683380127","-0.892884731292725","0.802218914031982","-0.392684817314148","0.814188718795776","-0.447711110115051","-0.489249587059021","-0.442684292793274","-0.291828751564026","0.257537096738815"],["-0.0943518877029419","0.0836905241012573","-0.330289959907532","-0.93239164352417","-0.286252856254578","0.789937734603882","0.314643114805222","0.827347040176392","0.981304168701172","-0.688217401504517"]],[["0.741315364837646","-0.775368690490723","-0.682868957519531","-0.320722937583923","-0.737360000610352","0.0364841222763062","-0.752398252487183","-0.547013282775879"],["-0.960327386856079","0.292351931333542","0.220046162605286","-0.96134877204895","0.864420652389526","-0.754233837127686","0.472209423780441","0.978001594543457"],["0.593518257141113","-0.929195404052734","-0.519486904144287","-0.249125838279724","0.919976472854614","0.00365173816680908","0.855015277862549","-0.946715354919434"],["0.263647049665451","0.137006163597107","0.590376615524292","-0.370621562004089","-0.225475668907166","-0.256151556968689","-0.816969394683838","0.750067710876465"],["0.411574810743332","-0.0937126874923706","-0.184346079826355","0.196075320243835","0.629815101623535","-0.921484708786011","-0.0410085916519165","0.10483705997467"],["0.694838762283325","0.349788159132004","-0.166723847389221","-0.840666055679321","-0.740881681442261","-0.0882436037063599","-0.988651752471924","-0.544848442077637"],["0.11985981464386","0.759892225265503","-0.622090339660645","0.0726007223129272","-0.496020913124084","0.400070875883102","0.105151534080505","0.99299693107605"],["0.421066969633102","-0.766024112701416","0.0975912809371948","-0.684036493301392","-0.117127776145935","0.595132350921631","0.29541203379631","0.279347866773605"],["-0.100795149803162","0.288580387830734","0.417286843061447","0.464234083890915","0.0684052705764771","0.84067702293396","0.845150232315063","-0.808037519454956"],["0.303534477949142","0.884604930877686","0.685135841369629","-0.121718049049377","0.751994132995605","0.957163572311401","-0.817081451416016","0.034396767616272"]],[["0.424381941556931","-0.253057837486267","0.927543878555298"],["0.231927275657654","-0.712467193603516","-0.455463767051697"],["-0.718429327011108","-0.867031574249268","0.691722631454468"],["-0.131854176521301","-0.731388568878174","-0.307169079780579"],["-0.254230856895447","0.146616101264954","0.385999888181686"],["-0.940564155578613","0.718040466308594","-0.0768319368362427"],["0.08708655834198","-0.0961309671401978","-0.960705280303955"],["0.467432945966721","-0.247253775596619","-0.93880033493042"]]],"Biases":["-0.770373106002808","-0.279944539070129","-0.92965841293335","0.181931853294373"]}