{"Weights":[[["0.712475538253784","0.305405586957932","-0.0393878221511841","0.493412226438522","-0.582315683364868","-0.65263295173645","-0.804702997207642","0.43875452876091","0.934693813323975","-0.161842942237854","0.598332643508911","-0.745922565460205","-0.298838496208191"],["-0.545725107192993","-0.112915873527527","-0.564414978027344","0.497562378644943","0.663009405136108","0.848414897918701","0.495320528745651","0.00948894023895264","0.189321637153625","-0.489654660224915","0.569697380065918","-0.877486228942871","-0.333147406578064"],["0.281466215848923","-0.290820717811584","0.0259667634963989","-0.196711421012878","-0.517045021057129","-0.896033763885498","-0.632706642150879","0.323579043149948","-0.109871506690979","0.444952219724655","-0.795049428939819","-0.509415149688721","-0.399141192436218"],["0.629713535308838","-0.860523462295532","0.0213590860366821","0.132118582725525","0.858948707580566","-0.257614016532898","-0.759178876876831","-0.352514624595642","-0.628977298736572","0.267166346311569","0.637966632843018","0.0575059652328491","0.340922087430954"],["0.990073919296265","-0.230290532112122","0.441296070814133","-0.509470462799072","0.825962543487549","0.397406071424484","0.179356217384338","0.189357399940491","0.0207837820053101","-0.564471244812012","0.252451151609421","-0.0174967050552368","0.960631608963013"],["-0.703754663467407","-0.982709407806396","-0.736224889755249","-0.416839003562927","0.756836891174316","0.452021569013596","-0.561874628067017","0.0450009107589722","-0.52463173866272","-0.703436613082886","-0.0819059610366821","-0.763153314590454","0.122383713722229"],["0.699255704879761","-0.807653665542603","0.387073248624802","0.452828854322433","0.625725746154785","-0.795396566390991","0.340501040220261","-0.16257107257843","-0.551483631134033","0.822491645812988","-0.0660923719406128","0.606783866882324","-0.419072508811951"],["0.327370136976242","0.641341686248779","0.246490836143494","-0.829668045043945","0.411298006772995","-0.140589118003845","0.244844555854797","0.330820292234421","-0.443606495857239","-0.584631443023682","0.092892050743103","0.191214203834534","-0.979372978210449"],["0.0587044954299927","0.209520220756531","0.261535614728928","-0.189996838569641","0.81755256652832","0.062578558921814","-0.718899488449097","-0.780593872070313","0.219958186149597","-0.570242643356323","-0.243180871009827","0.330147475004196","-0.583900690078735"],["-0.499826550483704","0.194689393043518","-0.397340893745422","0.559025526046753","0.957894563674927","0.836522102355957","0.360615938901901","0.883086442947388","0.443656653165817","0.528053522109985","-0.756028413772583","0.119519591331482","-0.47180163860321"],["0.636507272720337","-0.709675788879395","-0.336650252342224","-0.579430103302002","0.1411052942276","0.691545724868774","0.987942934036255","0.248602032661438","-0.899345636367798","0.968910932540894","0.316128939390183","-0.295247912406921","-0.256035685539246"],["-0.789726734161377","-0.555086374282837","0.214893698692322","-0.0631831884384155","0.779054164886475","0.489203184843063","0.153694033622742","-0.854588747024536","0.923892259597778","-0.216834664344788","0.192592978477478","0.63603663444519","-0.16268789768219"],["0.833809614181519","0.481777638196945","-0.661809206008911","0.343755215406418","-0.885565042495728","-0.500916481018066","-0.528717279434204","-0.432241797447205","-0.513620376586914","-0.934497833251953","0.74590539932251","0.933659553527832","-0.700766801834106"],["-0.178064465522766","0.819544792175293","0.708364725112915","-0.627140283584595","-0.0622292757034302","0.363494843244553","-0.201725125312805","0.69955587387085","0.143817067146301","0.520875692367554","-0.92739200592041","0.82213306427002","-0.0907014608383179"],["0.641667127609253","-0.790343999862671","0.662754535675049","0.789015054702759","-0.421145796775818","-0.356501698493958","-0.821609020233154","0.77858829498291","0.861393928527832","0.544688940048218","0.842319011688232","0.148218989372253","-0.700355768203735"],["0.476679056882858","0.284796208143234","0.23785674571991","0.845596313476563","0.0633391141891479","0.967928886413574","-0.52170729637146","0.826760530471802","0.0574015378952026","0.00616681575775146","-0.347039341926575","-0.0673969984054565","-0.685823678970337"],["-0.877966403961182","0.455702036619186","-0.946632623672485","-0.413094401359558","0.337411612272263","-0.476861596107483","0.51869010925293","0.829975128173828","-0.465581774711609","0.115238547325134","-0.123995900154114","0.484038084745407","0.885005474090576"]],[["-0.709443092346191","0.7603919506073","0.781733512878418","-0.192332148551941","-0.123653054237366","-0.874360799789429","0.21277129650116","0.424560993909836","0.869702100753784","-0.591327667236328"],["-0.166162133216858","-0.831967115402222","0.755199670791626","0.154212594032288","0.611018419265747","0.65965747833252","-0.301003336906433","0.447963446378708","-0.484572291374207","0.476752251386642"],["-0.734316110610962","0.411958664655685","0.97459888458252","-0.948815584182739","0.3122338950634","-0.168702006340027","-0.38346254825592","0.271469086408615","0.464424818754196","-0.697540044784546"],["0.913841485977173","0.0466881990432739","-0.378390192985535","-0.839628934860229","0.448120087385178","0.601009368896484","0.0846883058547974","-0.592775106430054","-0.610719919204712","-0.223601698875427"],["-0.764911651611328","0.994440317153931","-0.57534646987915","-0.254817843437195","-0.275285363197327","-0.159280896186829","-0.652386426925659","0.00344693660736084","0.245927453041077","-0.085523247718811"],["-0.255789875984192","-0.674718856811523","0.405114859342575","-0.396076798439026","-0.450281977653503","0.939681768417358","-0.752449750900269","0.314043253660202","0.0680350065231323","0.412772625684738"],["0.163681864738464","0.549258470535278","-0.998311519622803","0.750275373458862","-0.352548241615295","0.288498133420944","0.0694228410720825","-0.380259156227112","0.277799814939499","0.693310737609863"],["-0.975550651550293","0.55357551574707","-0.7409508228302","-0.354403853416443","0.202550053596497","-0.0439242124557495","0.830038070678711","0.241359114646912","0.536205768585205","0.907814741134644"],["0.642733335494995","0.538373947143555","0.543755769729614","0.435883730649948","-0.282447695732117","0.693384647369385","-0.974683046340942","0.401744335889816","-0.944580793380737","0.793055534362793"],["-0.546966791152954","-0.948873519897461","0.717400074005127","-0.210172295570374","-0.696979284286499","0.902803897857666","0.383087605237961","0.250404566526413","0.894977807998657","-0.209652304649353"],["0.148228287696838","-0.233010649681091","-0.0932549238204956","-0.110098004341125","0.338232487440109","0.13139545917511","-0.056571364402771","-0.434690117835999","0.846687078475952","-0.443758130073547"],["0.560171127319336","-0.969607591629028","0.918684720993042","0.649399995803833","0.129953503608704","0.705413103103638","-0.169958233833313","-0.059670090675354","0.530572175979614","-0.0626052618026733"],["0.368016928434372","0.689197778701782","-0.287499785423279","-0.26375949382782","-0.523328542709351","-0.763659000396729","0.101818919181824","0.661675214767456","-0.826730728149414","0.407316416501999"]],[["-0.876420259475708","-0.976034641265869","0.701385498046875","-0.0795220136642456","-0.34267246723175","-0.429822087287903","-0.467247843742371","-0.641324520111084"],["-0.454723000526428","0.0404998064041138","0.195375323295593","0.860525131225586","0.029762864112854","-0.297041296958923","0.55475115776062","0.450862139463425"],["0.810235500335693","-0.541975259780884","-0.273519396781921","0.403372973203659","-0.334570050239563","-0.0159238576889038","-0.264302134513855","0.937023878097534"],["-0.431830525398254","-0.304076790809631","-0.907479763031006","-0.113588452339172","0.120044827461243","-0.261452555656433","-0.989120721817017","0.849109172821045"],["-0.588677883148193","-0.595068454742432","-0.794901132583618","0.731827735900879","0.918171167373657","-0.166647791862488","-0.549523830413818","0.293225258588791"],["-0.642128705978394","0.305571049451828","0.440287321805954","0.9157395362854","-0.903617143630981","-0.99487042427063","0.462225884199142","0.757293224334717"],["-0.646811485290527","-0.590799808502197","0.0251132249832153","0.121652960777283","0.113233685493469","0.337921589612961","-0.146975636482239","-0.0301908254623413"],["0.0357240438461304","0.237425684928894","0.916815280914307","-0.245786070823669","0.60828971862793","0.240157723426819","-0.433747172355652","0.698967218399048"],["0.00751388072967529","0.592400789260864","-0.62510347366333","-0.790729522705078","0.521034002304077","-0.802572250366211","-0.940884113311768","-0.0531927347183228"],["-0.57647442817688","-0.360457062721252","0.313118427991867","0.962467670440674","0.344707936048508","0.266162842512131","0.337868183851242","0.925524950027466"]],[["0.984677076339722","-0.462545990943909","0.58234429359436"],["0.0260001420974731","-0.64990496635437","-0.130456805229187"],["-0.942769050598145","0.310992926359177","-0.670655965805054"],["0.404869765043259","-0.984826326370239","-0.468615174293518"],["-0.0733593702316284","-0.716129541397095","-0.213481545448303"],["-0.0969620943069458","-0.696459531784058","0.116530776023865"],["-0.223251938819885","0.00714504718780518","-0.556885004043579"],["0.58188533782959","-0.203810811042786","-0.728212594985962"]]],"Biases":["0.961930274963379","-0.909821033477783","-0.364729523658752","0.0467087030410767"]}