{"Weights":[[["0.511634349822998","0.758895397186279","-0.161618590354919","0.874600648880005","-0.199980139732361","0.111660838127136","-0.473904013633728","-0.440444827079773","0.0765320062637329","0.143285632133484","0.789935350418091","0.0629335641860962","-0.168028235435486"],["-0.160372853279114","-0.0660971403121948","-0.649849653244019","-0.606025457382202","-0.549758434295654","-0.476042866706848","0.559756755828857","0.622698307037354","-0.327361941337585","0.445286244153976","-0.161412358283997","-0.615558385848999","0.997816562652588"],["0.478227585554123","0.703545570373535","-0.800611019134521","-0.299380898475647","-0.539499521255493","-0.199993491172791","0.987974166870117","-0.797584533691406","-0.875411748886108","0.875941276550293","-0.239019751548767","-0.852385759353638","0.411500424146652"],["0.728139400482178","0.30033752322197","-0.932613849639893","-0.440284132957459","0.489026516675949","0.666403770446777","-0.0545502901077271","-0.258140683174133","-0.839951515197754","0.0794104337692261","-0.556784391403198","-0.254525065422058","-0.296364665031433"],["0.36812898516655","-0.764766454696655","0.762336492538452","-0.783999681472778","0.751733541488647","-0.18928325176239","-0.258278489112854","0.800771474838257","-0.608431577682495","0.594290733337402","-0.843838453292847","-0.453673720359802","0.22252357006073"],["0.0353447198867798","0.72969126701355","0.434562176465988","-0.0489369630813599","0.726296186447144","-0.427659630775452","-0.0746229887008667","-0.201182961463928","0.379049748182297","0.0796102285385132","0.059162974357605","0.945654630661011","0.107273459434509"],["0.678507804870605","-0.871630907058716","-0.0822652578353882","0.262786597013474","0.39657136797905","-0.50161075592041","0.0834232568740845","-0.801254749298096","-0.890768766403198","-0.276925206184387","-0.709129095077515","0.21287214756012","-0.0211838483810425"],["0.511019229888916","0.762716054916382","0.0847746133804321","0.384911984205246","-0.271897196769714","-0.959081649780273","0.357346028089523","-0.983439683914185","0.898613452911377","-0.347816586494446","0.943327665328979","0.253492087125778","-0.205253481864929"],["0.46550652384758","-0.29942262172699","0.865009307861328","0.832537651062012","0.802268028259277","-0.521929264068604","0.605459690093994","0.829298496246338","0.455920189619064","-0.95688796043396","-0.208896517753601","0.243103861808777","-0.159052968025208"],["-0.628246068954468","-0.136335968971252","0.529369592666626","-0.023093581199646","-0.382648110389709","0.624392032623291","-0.517066240310669","-0.540325164794922","-0.252628445625305","-0.0276921987533569","0.946779727935791","-0.371549010276794","-0.39730179309845"],["-0.91343879699707","0.944429159164429","0.553385972976685","0.274644583463669","0.289801090955734","0.987706184387207","-0.506172895431519","-0.71895694732666","-0.288523554801941","0.389540642499924","0.941499948501587","0.346779078245163","-0.751949071884155"],["-0.976861476898193","-0.529635429382324","-0.390750527381897","-0.147706151008606","-0.437756657600403","-0.15581738948822","-0.949492692947388","-0.842850685119629","0.76289439201355","-0.766019344329834","0.821799516677856","-0.882765054702759","-0.239196419715881"],["-0.275771260261536","-0.20901358127594","-0.794202089309692","0.7363600730896","0.976603984832764","-0.790643930435181","-0.486417412757874","0.995782852172852","0.190970063209534","-0.565216779708862","-0.147199988365173","-0.372794508934021","0.00456297397613525"],["0.873114585876465","0.12155544757843","-0.352025628089905","0.901059150695801","0.171511054039001","0.387302607297897","0.140729308128357","0.445341795682907","-0.318195939064026","-0.337358832359314","-0.77338981628418","-0.398039698600769","-0.0709608793258667"],["0.699336767196655","-0.576348304748535","0.0255266427993774","0.333324640989304","-0.139289259910584","-0.93690824508667","-0.848549604415894","-0.819721698760986","0.978187561035156","-0.963265419006348","-0.936149835586548","-0.371326565742493","-0.281436800956726"],["-0.537821054458618","0.544735670089722","0.676434278488159","0.515568971633911","0.529752016067505","0.674927234649658","0.356160134077072","0.27351900935173","-0.460763096809387","-0.346163868904114","-0.100410103797913","0.42911097407341","0.618725061416626"],["-0.254690051078796","-0.0466800928115845","0.00594007968902588","-0.690932273864746","-0.0695775747299194","-0.363380312919617","-0.303775429725647","-0.253528475761414","-0.89411449432373","-0.980805158615112","0.646815776824951","0.760345935821533","0.960650205612183"]],[["-0.0944709777832031","-0.551802635192871","0.10446560382843","0.315604895353317","0.742522954940796","0.0611761808395386","-0.908184289932251","-0.58689022064209","0.340510338544846","0.606680870056152"],["-0.752763986587524","0.391168087720871","0.539184808731079","-0.593964815139771","-0.406165480613709","0.573659181594849","-0.260456681251526","-0.178760409355164","-0.46516740322113","-0.962836503982544"],["-0.550375699996948","0.906665563583374","-0.361511588096619","0.877130508422852","0.584752321243286","-0.994535684585571","0.338917464017868","0.786919355392456","0.58602237701416","-0.012783408164978"],["0.246932148933411","-0.772416114807129","-0.555088043212891","0.631654024124146","0.272754639387131","-0.515003681182861","0.872676581144333","1","0.0328139066696167","0.377927035093308"],["0.0738130807876587","0.983753442764282","-0.290334463119507","0.283869951963425","0.238411545753479","0.287725895643234","-0.00259602069854736","-0.68746542930603","-0.553500175476074","0.69083309173584"],["-0.674527406692505","-0.612665414810181","-0.720011711120605","-0.237677454948425","0.295780867338181","-0.175423979759216","-0.644427299499512","0.762633562088013","-1","0.359741419553757"],["0.75618577003479","0.535313606262207","-0.495025277137756","0.800633668899536","-0.588264465332031","0.428245037794113","0.454504460096359","0.596454471349716","0.734896421432495","-0.171871781349182"],["-0.903416872024536","-0.611863613128662","-0.980988502502441","-0.664070606231689","-0.961107730865479","-0.105061411857605","0.564817428588867","0.683818340301514","-0.0168541669845581","0.238771080970764"],["0.837433576583862","0.646323680877686","0.823425531387329","0.856340408325195","0.709763765335083","0.130185723304749","-0.741128206253052","-0.0234681367874146","0.63581657409668","0.330585449934006"],["0.740444421768188","0.362164229154587","-0.487914681434631","-0.507794141769409","-0.226342558860779","0.719456911087036","-0.213443398475647","-0.223055481910706","-0.36240828037262","-0.13525378704071"],["-0.232792258262634","0.337537050247192","0.719615697860718","-0.160874247550964","0.345915526151657","-0.960446357727051","-0.875874757766724","0.877591371536255","0.484509915113449","-0.778118848800659"],["-0.397847771644592","-0.0904568433761597","-0.744492769241333","0.126305103302002","-0.872034072875977","0.354240387678146","0.67933177947998","0.286639183759689","-0.903110980987549","0.647748470306396"],["-0.39965283870697","0.482562750577927","0.261688202619553","-0.708104372024536","0.369389742612839","-0.173216462135315","0.274600237607956","0.509303331375122","0.701997756958008","0.106615662574768"]],[["-0.43112313747406","0.822684764862061","-0.508253574371338","-0.0753988027572632","-0.64967155456543","0.679118871688843","-0.110276579856873","-0.081745982170105"],["-0.778587579727173","0.927757740020752","0.8734290599823","-0.61152195930481","0.528449058532715","-0.19867479801178","-0.915715217590332","-0.971695899963379"],["0.651015043258667","-0.0886551141738892","0.959766864776611","-0.0677083730697632","0.562155485153198","-0.581172227859497","-0.919646739959717","0.550164699554443"],["0.886394262313843","-0.351100087165833","0.125253558158875","0.943104267120361","0.495955914258957","0.854979991912842","0.748394012451172","0.618040084838867"],["0.725957155227661","0.640368700027466","0.495511263608933","0.181124329566956","0.953183889389038","0.378851383924484","0.630231857299805","0.983314752578735"],["-0.0993884801864624","-0.517295837402344","-0.948437213897705","-0.93440842628479","-0.330147385597229","-0.382184147834778","0.0292192697525024","0.574735879898071"],["0.760343790054321","-0.732660293579102","-0.989820241928101","-0.521637439727783","0.86405086517334","0.210504174232483","-0.614254236221313","0.104780316352844"],["0.541654825210571","0.0844720602035522","-0.0431123971939087","0.589659214019775","0.890014886856079","-0.0386327505111694","0.762766599655151","-0.747585773468018"],["0.946597576141357","0.153268933296204","0.869719982147217","0.894816875457764","0.234315276145935","-0.87703800201416","0.854654312133789","-0.214195370674133"],["0.0420523881912231","0.1160968542099","-0.678061723709106","0.96613597869873","0.856128692626953","0.353088825941086","-0.267857193946838","-0.897176504135132"]],[["0.189400553703308","-0.312252640724182","0.442974537611008"],["0.074041485786438","0.821503639221191","-0.938477754592896"],["0.722468614578247","0.0371941328048706","-0.272551417350769"],["-0.650804042816162","0.14992892742157","-0.177346348762512"],["-0.0970000028610229","-0.194445729255676","0.076926589012146"],["0.53144645690918","-0.724276065826416","0.138764977455139"],["-0.190406441688538","-0.968201637268066","0.807058572769165"],["-0.28639829158783","-0.947727918624878","-0.547005176544189"]]],"Biases":["0.27164289355278","-0.512427806854248","0.0716763734817505","0.702077150344849"]}