{"Weights":[[["-0.536396980285645","0.568975448608398","-0.23154079914093","-0.614067316055298","-0.137184977531433","0.411337107419968","0.794040203094482","0.844814538955688","-0.684094190597534","0.772324562072754","-0.934105396270752","0.262171000242233","0.330797165632248"],["0.6619713306427","0.30726620554924","-0.128040909767151","-0.190435290336609","0.507631540298462","0.886665105819702","-0.86238169670105","0.453749865293503","-0.918226957321167","-0.844096422195435","0.214755654335022","0.239266991615295","-0.81925630569458"],["-0.418813347816467","0.794039487838745","0.186948180198669","-0.937403678894043","0.981552362442017","-0.512141466140747","0.0400115251541138","0.409589499235153","-0.460591435432434","0.70996356010437","-0.879798173904419","0.652516603469849","-0.334348559379578"],["0.691650629043579","0.14792263507843","0.710527658462524","-0.588775634765625","0.106468319892883","-0.439836382865906","0.746973752975464","-0.404456734657288","0.134274125099182","-0.165402054786682","-0.22749125957489","0.839087963104248","0.325771778821945"],["-0.574298143386841","-0.0207024812698364","0.665636539459229","-0.667506456375122","0.219963908195496","-0.537767887115479","-0.274686217308044","-0.772185325622559","-0.104119658470154","0.949446201324463","0.867218255996704","-0.343076348304749","-0.802747964859009"],["-0.501235246658325","-0.0385609865188599","-0.918720960617065","-0.392255187034607","0.497976750135422","0.391384810209274","-0.173921465873718","-0.962351322174072","0.512641668319702","0.467322319746017","-0.896457433700562","0.268461436033249","-0.935961723327637"],["-0.0277537107467651","0.469341725111008","-0.143300175666809","0.330625504255295","0.964373588562012","0.346463173627853","0.838304996490479","0.53437614440918","0.00657451152801514","-0.805729150772095","-0.525848865509033","-0.794352054595947","0.866921663284302"],["0.790414094924927","-0.727761507034302","-0.574527502059937","0.145193696022034","-0.450098395347595","0.390478819608688","-0.952563047409058","0.500271558761597","0.144405007362366","-0.286920666694641","0.988636493682861","0.00857532024383545","0.33533188700676"],["-0.37697160243988","-0.0255781412124634","0.360212057828903","0.563070058822632","-0.0843886137008667","0.56164026260376","0.405500859022141","-0.103448271751404","0.852871894836426","0.739958524703979","-0.771419048309326","0.259822815656662","-0.43871009349823"],["-0.955399036407471","-0.0709012746810913","0.19465959072113","-0.583754777908325","0.0833061933517456","-0.149371981620789","-0.210017800331116","0.855028390884399","-0.45172917842865","0.0744508504867554","-0.506712913513184","0.488571375608444","-0.489806056022644"],["0.918690204620361","-0.0246697664260864","0.91910457611084","0.169822812080383","-0.66115665435791","0.505208492279053","-0.94955849647522","-0.511244297027588","0.312481373548508","-0.893431663513184","0.496696203947067","-0.225115895271301","-0.736369132995605"],["-0.0119954347610474","0.351833552122116","-0.513721227645874","-0.171245932579041","0.365595787763596","-0.725829601287842","0.210163474082947","-0.985848665237427","0.112238526344299","-0.791474580764771","-0.0482999086380005","-0.454474568367004","-0.192152857780457"],["-0.180805563926697","0.747888803482056","0.763458490371704","-0.930572986602783","0.808432340621948","-0.402712225914001","0.646902561187744","0.0295554399490356","0.742730379104614","0.193756461143494","0.876016855239868","-0.743246078491211","0.819691181182861"],["-0.658109903335571","-0.0958303213119507","0.0955687761306763","0.666141510009766","-0.735078096389771","-0.66178297996521","-0.836861371994019","0.325610846281052","0.785878419876099","-0.475030541419983","-0.867172479629517","-0.51772665977478","0.618040800094604"],["-0.35691225528717","0.661139726638794","-0.680202007293701","-0.762458801269531","-0.411380887031555","0.499679774045944","-0.591050863265991","-0.2805255651474","0.588032007217407","-0.503425359725952","0.325247019529343","-0.72137451171875","-0.00633823871612549"],["0.59988260269165","-0.418279051780701","-0.737774848937988","0.142161965370178","-0.540289640426636","0.834610462188721","-0.522778511047363","0.234302401542664","0.732919692993164","0.775764226913452","0.610851764678955","0.2833032310009","-0.713365316390991"],["0.97393536567688","-0.516819715499878","-0.443598866462708","0.980780124664307","0.568569660186768","-0.600001573562622","0.301609247922897","0.625284671783447","0.696272373199463","-0.283458352088928","0.394283026456833","0.627996444702148","0.420132607221603"]],[["-0.682430982589722","0.0474809408187866","-0.890801429748535","0.364182442426682","-0.939321517944336","-0.0537444353103638","0.687180280685425","0.720511913299561","-0.419350266456604","0.810980558395386"],["0.463633507490158","0.215724587440491","-0.0870598554611206","0.228504538536072","-0.307708621025085","0.371826857328415","0.516479253768921","-0.34784996509552","0.0187948942184448","0.497546881437302"],["-0.277465462684631","-0.449168086051941","0.176274180412292","0.0316020250320435","-0.922162055969238","-0.74732232093811","0.443579167127609","0.337956637144089","0.0294872522354126","0.288123577833176"],["0.664952039718628","0.566939830780029","-0.905091524124146","-0.330335259437561","0.769723892211914","-0.237128376960754","0.626282691955566","0.147930979728699","0.71751070022583","0.6572425365448"],["-0.90823221206665","-0.994873762130737","-0.350999712944031","0.115926861763","0.64696478843689","0.950409650802612","0.0309895277023315","0.755353927612305","-0.311979413032532","0.503281831741333"],["0.56358528137207","-0.739562034606934","-0.35961377620697","0.931787014007568","-0.157744526863098","0.0804780721664429","-0.380411028862","0.536465883255005","-0.738867998123169","-0.428488373756409"],["0.0456031560897827","0.794584274291992","0.075520396232605","-0.808166027069092","-0.274292349815369","0.229231238365173","0.064073920249939","-0.470252156257629","0.894580841064453","0.315974682569504"],["0.272234171628952","-0.0933204889297485","-0.862301349639893","-0.94464373588562","-0.795908451080322","-0.611364841461182","0.452689379453659","-0.897917032241821","-0.206807732582092","-0.261684060096741"],["-0.394399762153625","-0.340693593025208","-0.280402302742004","-0.055658221244812","0.714128017425537","-0.621969699859619","-0.555060386657715","0.2403165102005","-0.88016152381897","0.853931427001953"],["-0.395878911018372","-0.635196447372437","0.981210947036743","0.622066974639893","0.316471308469772","-0.416226267814636","0.543379783630371","-0.202421545982361","0.500848531723022","-0.883175611495972"],["-0.715992212295532","0.889608383178711","0.583733797073364","-0.0384024381637573","-0.47354257106781","-0.62613844871521","0.59591007232666","-0.753638744354248","-0.482792019844055","0.473114222288132"],["0.570771455764771","0.0450156927108765","0.327264994382858","-0.151072859764099","0.987003564834595","-0.596746444702148","-0.466589570045471","0.116981625556946","0.241543889045715","-0.733059883117676"],["-0.380773663520813","0.334524363279343","-0.768305778503418","0.234770655632019","-0.411709904670715","-0.156236529350281","0.910620212554932","-0.641314506530762","-0.936995506286621","-0.282448887825012"]],[["0.830413818359375","-0.284090399742126","-0.676660537719727","0.832737684249878","0.466589421033859","-0.483279585838318","0.373605936765671","-0.233914256095886"],["0.830997705459595","-0.585275173187256","-0.558605432510376","0.777626276016235","0.0153518915176392","-0.805234670639038","0.0591181516647339","-0.158734202384949"],["-0.0217322111129761","0.899034261703491","0.459551304578781","0.559737920761108","0.97249960899353","0.980082035064697","0.415255039930344","0.435377568006516"],["-0.334848761558533","0.231188893318176","0.216076016426086","0.115788102149963","-0.158086180686951","-0.900551795959473","-0.672447443008423","-0.873290777206421"],["0.548423051834106","0.504670858383179","0.0690833330154419","0.446202963590622","-0.80704140663147","-0.933963060379028","-0.138590931892395","-0.972947597503662"],["-0.385596394538879","0.0426679849624634","0.502504348754883","-0.795941114425659","0.421066969633102","-0.45530903339386","0.554116010665894","-0.477038502693176"],["-0.931758880615234","-0.78244686126709","0.839895009994507","-0.517960548400879","-0.46901547908783","-0.939900159835815","0.301955431699753","0.752312898635864"],["0.218799710273743","-0.62519383430481","0.579878330230713","0.652871131896973","0.0246833562850952","-0.999435186386108","-0.503678560256958","-0.598469734191895"],["0.797130107879639","-0.783797264099121","0.418965071439743","-0.592090606689453","0.394158810377121","-0.156312108039856","0.310678690671921","0.565040349960327"],["-0.771247625350952","-0.917653560638428","-0.997160196304321","-0.409422039985657","-0.719467639923096","-0.76783275604248","-0.410529255867004","-0.538859605789185"]],[["0.32248255610466","-0.14038097858429","0.661441087722778"],["0.597785711288452","-0.666293382644653","-0.373710036277771"],["-0.46204149723053","0.87107253074646","-0.107383847236633"],["0.111703991889954","0.723849296569824","-0.792524337768555"],["-0.294019341468811","0.143674254417419","-0.894208192825317"],["0.968720436096191","0.817456483840942","0.289490193128586"],["0.439673155546188","0.668267011642456","-0.00977766513824463"],["-0.317832112312317","0.0404645204544067","-0.405776619911194"]]],"Biases":["-0.120800137519836","-0.922807931900024","-0.219746470451355","0.493805855512619"]}