{"Weights":[[["0.832891702651978","0.3572778403759","0.337229937314987","-0.153342843055725","-0.113344550132751","-0.970996856689453","-0.674252033233643","0.885947704315186","0.740268230438232","-0.391919016838074","-0.343480944633484","0.4480240046978","0.0906003713607788"],["-0.591065406799316","-0.820380210876465","-0.787692546844482","-0.315863251686096","-0.0178946256637573","-0.984471797943115","0.793478488922119","0.504125118255615","-0.766047477722168","0.135499596595764","-0.74205756187439","0.719126462936401","0.392230480909348"],["-0.887463808059692","0.393289536237717","-0.263002514839172","0.0673128366470337","-0.0821863412857056","0.853954792022705","0.496684521436691","-0.884085416793823","-0.308787703514099","-0.222648978233337","0.678074836730957","0.295379608869553","0.485503405332565"],["-0.686962604522705","-0.176367402076721","-0.729971885681152","-0.0952721834182739","-0.285123467445374","-0.767791748046875","-0.595357418060303","0.982585668563843","0.356866806745529","-0.970346927642822","0.858768224716187","-0.999657869338989","-0.0613085031509399"],["0.16379702091217","-0.279136538505554","-0.838976860046387","-0.503338813781738","0.36131426692009","-0.194833159446716","-0.0610119104385376","-0.92380428314209","0.405750721693039","0.432285517454147","-0.448986649513245","-0.851396083831787","0.484951704740524"],["0.941014528274536","-0.285176634788513","-0.390865206718445","-0.484479784965515","-0.136064887046814","-0.484561324119568","0.700648784637451","-0.652637243270874","0.103933453559875","0.149332404136658","-0.0324350595474243","-0.272546887397766","-0.178879857063293"],["0.304631680250168","0.272581547498703","-0.631525754928589","0.696696996688843","-0.915682315826416","0.282558888196945","0.234444737434387","0.166767716407776","-0.166114926338196","-0.254321455955505","0.00401437282562256","-0.24515426158905","-0.981488227844238"],["-0.415080904960632","0.989242553710938","0.889556169509888","-0.205679059028625","-0.0548721551895142","-0.331443428993225","0.0672610998153687","0.0340365171432495","-0.111563324928284","0.498086422681808","0.915530920028687","0.792626619338989","0.914767503738403"],["0.126951575279236","-0.487914681434631","-0.165238261222839","-0.138303160667419","0.387048214673996","-0.937258243560791","-0.979610204696655","0.58032488822937","0.284029453992844","-0.389999032020569","0.121079802513123","0.305588930845261","0.0136388540267944"],["0.486803501844406","-0.615530252456665","-0.193532586097717","-0.220849394798279","0.941939830780029","0.283459156751633","-0.224109530448914","0.976346731185913","-0.656985521316528","-0.364213109016418","-0.195457100868225","-0.348363280296326","-0.330234408378601"],["-0.343684792518616","0.69084358215332","-0.260295033454895","-0.166180491447449","0.62375020980835","0.573003768920898","0.913994073867798","-0.420556664466858","0.929003953933716","0.397546738386154","-0.757597684860229","-0.400526165962219","0.212531208992004"],["-0.506226539611816","0.503484487533569","-0.334842801094055","0.459204643964767","0.872212171554565","-0.180373072624207","-0.286944508552551","-0.917640447616577","-0.392412543296814","-0.926989316940308","0.971724510192871","-0.0582391023635864","-0.114262700080872"],["0.137938141822815","-0.244192242622375","0.476510256528854","0.840775728225708","0.375386446714401","-0.308919787406921","-0.0727688074111938","-0.16183602809906","0.170633673667908","-0.0784937143325806","-0.0359011888504028","0.497144192457199","0.303421944379807"],["-0.175599455833435","-0.0455600023269653","-0.404245495796204","-0.550211906433105","-0.446443438529968","0.159667372703552","-0.904850959777832","0.378728598356247","0.904121398925781","0.366200894117355","-0.238540053367615","-0.263730883598328","0.870575189590454"],["-0.10375702381134","0.382813185453415","0.289110630750656","0.132798075675964","0.260487288236618","0.139800429344177","0.280720442533493","-0.301365971565247","0.719383478164673","0.935267925262451","0.434501856565475","-0.269551873207092","-0.490890145301819"],["0.298674792051315","0.624927520751953","0.71631121635437","0.949614763259888","-0.749441862106323","0.665907382965088","-0.427333474159241","-0.573331832885742","-0.988656997680664","0.600811243057251","-0.605120658874512","-0.645418643951416","-0.419951796531677"],["0.633862257003784","0.942400455474854","0.473146170377731","0.375810593366623","-0.0485056638717651","0.0241454839706421","0.810854196548462","-0.992247819900513","0.841410160064697","0.556540250778198","-0.798298835754395","-0.540459156036377","-0.963637828826904"]],[["-0.796153783798218","-0.666129350662231","0.821060657501221","-0.963151693344116","0.486258715391159","-0.395975708961487","-0.62903904914856","-0.196148753166199","-0.919327020645142","-0.276192307472229"],["-0.14008104801178","-0.325106024742126","0.799162626266479","0.2368403673172","-0.733935594558716","0.050594687461853","-0.108092904090881","0.80574369430542","0.041875958442688","-0.560210704803467"],["-0.926934719085693","0.596197605133057","0.499188631772995","0.670940399169922","0.225021958351135","-0.261828064918518","0.619152545928955","-0.378803849220276","-0.549054622650146","0.196280837059021"],["0.535841703414917","-0.306898713111877","-0.285743355751038","0.693560123443604","-0.588069438934326","-0.221931338310242","-0.89896821975708","-0.427525639533997","0.978479385375977","-0.0363415479660034"],["-0.123737931251526","0.941676616668701","0.936376094818115","-0.685339689254761","-0.322326302528381","-0.755515575408936","0.452264040708542","0.490937918424606","0.404319018125534","0.795068740844727"],["0.857687950134277","-0.20883572101593","0.248974442481995","0.395893543958664","-0.793820858001709","0.153662085533142","0.34547683596611","0.355253428220749","-0.947521924972534","0.690585851669312"],["-0.917354106903076","-0.951648473739624","-0.828393936157227","0.371494978666306","-0.228872418403625","0.0252436399459839","-0.024201512336731","-0.112251400947571","-0.0805448293685913","0.0199261903762817"],["0.566709518432617","-0.831155061721802","0.260272949934006","-0.830159187316895","0.155681967735291","-0.663089275360107","0.294855326414108","-0.952711343765259","0.13433825969696","0.296332567930222"],["0.629423141479492","0.544213533401489","-0.106696963310242","-0.432835698127747","-0.210720181465149","-0.4195636510849","-0.52434778213501","-0.622994184494019","0.953078746795654","0.346862524747849"],["0.608567476272583","-0.285645842552185","-0.730697154998779","-0.528210878372192","-0.999715566635132","0.803441047668457","-0.0603970289230347","-0.401682257652283","-0.654090881347656","0.359250515699387"],["0.254825323820114","0.254829376935959","-0.0631481409072876","-0.79680609703064","-0.14654004573822","0.961658477783203","-0.157147526741028","0.280300825834274","-0.242109656333923","-0.878625154495239"],["-0.135429739952087","-0.329983353614807","0.929022073745728","-0.542448282241821","0.193884015083313","-0.893256664276123","0.471479624509811","0.87663745880127","0.128573298454285","0.63823413848877"],["-0.522896528244019","-0.191743731498718","-0.658565521240234","-0.879068851470947","-0.560811042785645","0.336397856473923","-0.241467118263245","0.288854569196701","-0.95600962638855","-0.508169412612915"]],[["-0.781410932540894","0.486009806394577","-0.364497780799866","-0.755419254302979","0.646429300308228","-0.718334197998047","0.584896326065063","-0.0412458181381226"],["0.825961589813232","-0.485598921775818","0.0945357084274292","0.0279442071914673","-0.516407012939453","0.991244792938232","-0.96677827835083","-0.158586859703064"],["-0.0523861646652222","0.426735371351242","0.759133338928223","-0.435850739479065","0.438802689313889","-0.236115097999573","0.284043043851852","-0.594995260238647"],["0.777341842651367","0.640859842300415","0.234870314598084","0.904776096343994","0.389229267835617","0.856431722640991","-0.833381175994873","0.919350385665894"],["0.933058500289917","0.183798670768738","-0.394817709922791","0.8312668800354","-0.249699234962463","0.458773821592331","0.483319729566574","0.248137354850769"],["-0.849650382995605","-0.132480025291443","0.905758142471313","-0.25723397731781","-0.299529194831848","-0.136568427085876","0.515411615371704","-0.182805895805359"],["0.601804494857788","0.0599006414413452","0.666823148727417","-0.978068351745605","-0.800840854644775","-0.0659855604171753","-0.973674058914185","0.590032577514648"],["0.314679592847824","0.895151853561401","0.149533867835999","-0.944743156433105","-0.12772810459137","-0.367741465568542","-0.678693532943726","0.0155071020126343"],["-0.259435534477234","-0.117599368095398","-0.0750080347061157","-0.485166907310486","-0.2303866147995","0.607162714004517","0.739651203155518","-0.863407611846924"],["0.814239978790283","-0.70331883430481","0.851011753082275","0.153523325920105","-0.448041796684265","0.07471764087677","-0.832106590270996","0.799715757369995"]],[["0.22032368183136","0.511337995529175","0.175988078117371"],["0.964392185211182","-0.477226138114929","-0.781377792358398"],["0.374585837125778","0.534081220626831","0.450930804014206"],["0.728188991546631","0.91883111000061","0.0539447069168091"],["-0.641309022903442","-0.899945974349976","-0.770675659179688"],["-0.160350441932678","-0.404058575630188","-0.653831005096436"],["-0.0717176198959351","-0.515587091445923","0.720888137817383"],["-0.973146438598633","-0.586712598800659","-0.209213614463806"]]],"Biases":["-0.134070754051209","-0.0633708238601685","0.368447989225388","0.521128416061401"]}