{"Weights":[[["-0.76158618927002","-0.697208166122437","-0.60014820098877","0.839937210083008","-0.759292602539063","-0.966972589492798","-0.806693315505981","0.153284907341003","0.837792158126831","0.508270740509033","-0.145748496055603","-0.139376759529114","0.71236777305603"],["-0.0886205434799194","0.840811014175415","0.0989452600479126","-0.00962626934051514","-3.65972518920898E-05","0.178455710411072","0.52734112739563","0.729955196380615","-0.644564151763916","0.576019763946533","-0.761455297470093","0.78999662399292","0.19520890712738"],["0.557252883911133","0.0121082067489624","-0.879519462585449","0.290556162595749","0.306717127561569","-0.881713390350342","0.94762921333313","0.94511342048645","-0.757441282272339","-0.186244130134583","0.0205658674240112","0.645728349685669","0.285331219434738"],["-0.143665432929993","-0.862402677536011","0.814040422439575","0.593201398849487","-0.381080508232117","0.275123804807663","-0.769250869750977","0.678336143493652","-0.982327222824097","-0.521255254745483","-0.00718080997467041","-0.936015367507935","0.685131311416626"],["0.601295709609985","-0.931831359863281","-0.764433860778809","0.944884300231934","0.846803903579712","-0.0926710367202759","-0.730897426605225","0.377763003110886","-0.262114882469177","0.123402714729309","-0.253739953041077","-0.603312969207764","0.370593518018723"],["-0.843700170516968","0.924649477005005","-0.964253187179565","0.163362622261047","-0.0244256258010864","-0.681505680084229","0.258544892072678","0.340297430753708","-0.397706151008606","0.91120457649231","-0.997331619262695","0.420579642057419","-0.0264695882797241"],["0.735466003417969","-0.144632697105408","0.452216118574142","0.233771204948425","0.397484749555588","-0.465166211128235","0.965879201889038","0.0941685438156128","-0.69272255897522","-0.777336359024048","0.660678863525391","-0.508346557617188","0.889925479888916"],["0.316873282194138","0.599171876907349","0.797403573989868","-0.929884910583496","-0.977344036102295","0.0190261602401733","-0.784548282623291","-0.915494918823242","-0.203007102012634","-0.951795339584351","-0.748008489608765","-0.253065943717957","0.758501529693604"],["0.787884950637817","-0.994891166687012","-0.383668303489685","0.78972339630127","-0.463076949119568","-0.777891635894775","0.127795100212097","0.289384096860886","0.626337051391602","0.798983812332153","-0.399232029914856","0.0958694219589233","-0.205635905265808"],["-0.70337986946106","-0.0331631898880005","0.660771608352661","0.983128786087036","0.567710161209106","0.698152780532837","0.491442888975143","0.0248144865036011","-0.234956383705139","0.509582281112671","0.981188535690308","-0.509848833084106","-0.0478895902633667"],["0.251736372709274","-0.146313071250916","-0.968564510345459","-0.395663619041443","0.914554595947266","0.100428462028503","-0.0673338174819946","0.371617048978806","0.0399361848831177","-0.0771595239639282","0.437104433774948","0.361977308988571","0.961906909942627"],["-0.0885010957717896","0.829327344894409","0.354992836713791","-0.0901850461959839","0.962454557418823","0.584183692932129","-0.0257006883621216","-0.721753835678101","-0.951008319854736","0.541763782501221","-0.986407518386841","0.353976219892502","0.241037964820862"],["0.286526173353195","-0.461331963539124","0.241233468055725","-0.250543713569641","0.950941801071167","-0.437421202659607","-0.237760663032532","-0.0605510473251343","-0.726404190063477","0.991689443588257","-0.181520104408264","-0.158639550209045","-0.281070113182068"],["0.103195548057556","-0.202907919883728","0.0226150751113892","-0.0960022211074829","-0.916772365570068","0.56348443031311","0.703216552734375","0.319244354963303","0.459132164716721","0.687700271606445","0.165179133415222","-0.02898108959198","0.934421062469482"],["0.399256199598312","-0.476019740104675","0.505466222763062","-0.914891004562378","-0.944193363189697","-0.228691697120667","-0.722462892532349","0.263021916151047","-0.664627075195313","0.415042370557785","0.189148306846619","0.87446117401123","0.690541505813599"],["0.617644309997559","-0.874145030975342","-0.445403933525085","0.0390869379043579","-0.725674390792847","0.530556917190552","-0.996070623397827","0.933243036270142","-0.193022847175598","0.269345015287399","0.24963915348053","-0.516143321990967","-0.682321548461914"],["-0.91715931892395","0.353464335203171","0.137992978096008","-0.890895366668701","-0.0894080400466919","-0.684870719909668","-0.178904175758362","-0.309071183204651","0.42926499247551","-0.730632781982422","-0.760210990905762","-0.343788266181946","-0.0137749910354614"]],[["-0.659430980682373","-0.227486729621887","0.791027784347534","-0.54603910446167","0.782131195068359","-0.319868683815002","-0.111338257789612","0.861658811569214","-0.674676418304443","0.0928243398666382"],["-0.0963572263717651","-0.500047922134399","-0.55535626411438","-0.727401256561279","-0.634667873382568","-0.252479672431946","0.473761528730392","-0.0200215578079224","0.555022478103638","-0.324255108833313"],["0.772469758987427","-0.984888792037964","-0.628064393997192","-0.990837574005127","0.767711162567139","-0.236961722373962","0.291138142347336","-0.930861473083496","-0.768385887145996","-0.83774733543396"],["0.376027315855026","0.909572839736938","-0.541233539581299","0.12410581111908","0.383343428373337","-0.97016716003418","-0.325733780860901","-0.40890896320343","0.0213981866836548","-0.427640557289124"],["-0.642038345336914","-0.933456897735596","0.883541584014893","-0.674741506576538","-0.207337260246277","0.257854908704758","-0.262237906455994","0.206717610359192","-0.694182395935059","-0.573263168334961"],["0.867623805999756","0.91028094291687","-0.407114863395691","-0.998683929443359","-0.689354658126831","0.445778101682663","0.865702152252197","-0.135489106178284","-0.902000427246094","-0.629806518554688"],["0.794438362121582","-0.394808888435364","0.653619289398193","0.741573095321655","0.0318087339401245","0.0211201906204224","0.734054327011108","0.526477813720703","0.267376631498337","-0.506367444992065"],["0.619990825653076","0.978050470352173","-0.957212924957275","0.0539597272872925","-0.333918452262878","0.141658425331116","0.319869011640549","-0.289647698402405","-0.088436484336853","-0.961101531982422"],["0.895892381668091","0.490311592817307","0.644784688949585","-0.963424444198608","0.893344163894653","-0.670891284942627","0.519274234771729","-0.0255860090255737","-0.264531016349792","0.725181818008423"],["-0.621940612792969","-0.658686637878418","0.603389024734497","0.240234017372131","-0.220008254051209","-0.355011105537415","-0.427018046379089","0.29276630282402","0.949080228805542","-0.460425734519959"],["0.947942495346069","-0.580746650695801","0.729892730712891","0.364051789045334","0.968475341796875","-0.445923209190369","0.304022997617722","0.468008726835251","-0.53412389755249","0.74725866317749"],["0.0112777948379517","-0.525882720947266","0.972774267196655","-0.542074203491211","-0.495036482810974","0.259866446256638","-0.829253196716309","0.0782901048660278","-0.563211441040039","0.573946952819824"],["0.399870365858078","-0.828509569168091","-0.196748375892639","0.307594507932663","0.430979698896408","0.721253871917725","-0.493318915367126","0.733343839645386","0.365209311246872","0.584873199462891"]],[["0.858200073242188","-0.300166249275208","0.204618573188782","-0.694294214248657","-0.819232702255249","0.519052267074585","-0.0403105020523071","0.0397058725357056"],["0.60200834274292","-0.3881014585495","-0.635634183883667","0.103374600410461","0.494559735059738","-0.5672607421875","0.895014047622681","0.514369487762451"],["-0.128870606422424","-0.822107791900635","-0.653427362442017","-0.851508140563965","-0.603897333145142","0.867324829101563","0.261424988508224","0.109716057777405"],["-0.258588910102844","0.796585321426392","-0.107264161109924","-0.172373175621033","-0.623143434524536","0.982014894485474","-0.977351427078247","0.269139736890793"],["-0.52289080619812","0.856269121170044","-0.558796644210815","-0.340965867042542","-0.978753566741943","0.803298234939575","0.0360938310623169","0.365145653486252"],["0.198970913887024","0.775389671325684","-0.763717412948608","-0.724286556243896","-0.584612846374512","0.535598039627075","0.306675404310226","0.576371192932129"],["-0.515798330307007","-0.116888403892517","0.404399842023849","-0.383290410041809","0.213288426399231","-0.975446701049805","-0.0647865533828735","0.11747419834137"],["0.748096466064453","-0.512687921524048","-0.253894686698914","0.658223390579224","-0.144334435462952","0.890655517578125","0.491247147321701","-0.140144467353821"],["0.167750477790833","0.198922514915466","0.25306436419487","0.465250462293625","0.244214415550232","-0.286938309669495","-0.117501854896545","0.744006872177124"],["-0.0192736387252808","0.838932037353516","-0.727089643478394","-0.59374737739563","-0.710871934890747","0.299621790647507","0.634189605712891","-0.190824866294861"]],[["-0.0732465982437134","-0.448310732841492","-0.719741344451904"],["-0.57084846496582","0.937795400619507","0.62659478187561"],["-0.0543042421340942","-0.929143905639648","0.452083081007004"],["-0.878545045852661","0.818448543548584","-0.736233711242676"],["0.466049879789352","-0.367841601371765","0.66184401512146"],["0.138260245323181","-0.0887759923934937","0.897950172424316"],["-0.442205786705017","0.601251125335693","-0.165446877479553"],["-0.145564198493958","-0.95208215713501","0.42156383395195"]]],"Biases":["0.144375443458557","0.214455246925354","-0.954281568527222","-0.2847820520401"]}