{"Weights":[[["-0.123237013816834","-0.930612325668335","-0.0997587442398071","-0.766517400741577","-0.583581686019897","-0.00771415233612061","0.386258333921433","0.160839200019836","-0.592351675033569","0.402763575315475","-0.0961035490036011","0.266730278730392","0.929523944854736"],["0.941982269287109","-0.556427478790283","0.796618461608887","-0.623415470123291","-0.929303169250488","-0.077257513999939","0.82097601890564","0.702356576919556","0.417833536863327","0.317832201719284","-0.295324921607971","-0.792950630187988","0.447174042463303"],["0.567148447036743","0.0787409543991089","0.378720492124558","-0.77452826499939","0.538323402404785","0.30942103266716","-0.188253283500671","0.389423102140427","-0.117253661155701","-0.189250349998474","0.873979806900024","0.677109718322754","-0.575402021408081"],["0.584581613540649","0.832925081253052","0.723633766174316","0.804119348526001","-0.508424758911133","0.0626465082168579","0.869507551193237","0.619132518768311","-0.404671788215637","-0.994019508361816","0.844913482666016","-0.844185829162598","0.910671472549438"],["-0.299021363258362","-0.596171617507935","-0.679377794265747","0.65566611289978","-0.838713407516479","-0.815982818603516","0.0920277833938599","0.0423201322555542","-0.16696560382843","-0.145128130912781","0.277668684720993","0.538867473602295","0.40462538599968"],["0.79702091217041","-0.464867234230042","0.166620135307312","-0.919111967086792","-0.455342411994934","-0.612880229949951","0.271122187376022","-0.192310929298401","-0.103648066520691","0.3238146007061","-0.680364847183228","0.836515188217163","0.424211233854294"],["-0.701495409011841","-0.235970139503479","0.163105845451355","0.673179149627686","0.801889181137085","-0.0580178499221802","-0.156527400016785","0.857259273529053","-0.830575942993164","0.165557980537415","-0.512553930282593","-0.440191864967346","0.148233771324158"],["-0.29699718952179","0.442395895719528","0.406411379575729","0.118710875511169","0.786800622940063","-0.477718472480774","0.626673460006714","-0.20016348361969","-0.666992664337158","0.126205801963806","-0.454510092735291","0.231399655342102","0.23590075969696"],["-0.799149751663208","0.995505094528198","0.668185710906982","-0.403203845024109","-0.24360978603363","-0.214321255683899","-0.982954025268555","0.230805993080139","-0.494243025779724","-0.702324390411377","-0.211161494255066","0.287423819303513","0.718255996704102"],["-0.422668814659119","0.37376543879509","-0.791718721389771","0.747842311859131","-0.641680955886841","0.721561670303345","0.0874322652816772","0.733525276184082","-0.251477122306824","-0.424613833427429","0.744373083114624","-0.394959092140198","-0.332579255104065"],["0.106682896614075","0.755967855453491","-0.353965163230896","0.982115507125854","0.256322354078293","-0.323143124580383","-0.188703656196594","-0.628416538238525","0.827963352203369","-0.9928879737854","-0.195521712303162","-0.33088743686676","0.69347095489502"],["0.618288993835449","0.581027746200562","-0.802348613739014","0.339599341154099","0.641098737716675","0.935156345367432","0.325688809156418","-0.0545355081558228","-0.377611041069031","0.0223168134689331","0.70495080947876","0.419663637876511","0.418996304273605"],["-0.553161859512329","-0.252687573432922","-0.0601629018783569","0.892248153686523","0.549453973770142","-0.0955411195755005","0.329386681318283","-0.343146443367004","0.399088829755783","-0.813680171966553","-0.987309694290161","-0.176037192344666","-0.126020789146423"],["-0.0757900476455688","-0.932041883468628","0.45259091258049","-0.141801238059998","-0.557242393493652","0.173945546150208","0.0205885171890259","-0.833390474319458","0.155673861503601","0.0152922868728638","0.920902490615845","-0.815864086151123","-0.177549958229065"],["0.619976758956909","0.933569431304932","0.72260570526123","-0.460506558418274","-0.630667924880981","-0.355008959770203","0.79227614402771","-0.478778958320618","0.764519929885864","0.82661509513855","-0.480561852455139","-0.852804660797119","-0.739667654037476"],["0.64946985244751","-0.496914744377136","0.893120527267456","0.594204664230347","-0.20033061504364","0.660215377807617","0.949243545532227","-0.170300841331482","0.722209692001343","-0.441609501838684","0.503793716430664","0.962779998779297","0.741425037384033"],["0.450726717710495","-0.61960768699646","0.159173130989075","0.143657803535461","0.138229966163635","0.922467708587646","0.659536123275757","0.543143749237061","-0.138714671134949","-0.287557244300842","0.637483835220337","-0.654837369918823","-0.435481190681458"]],[["0.179846167564392","0.681244850158691","-0.687072038650513","-0.90489673614502","-0.539022445678711","0.284023016691208","-0.0932198762893677","0.614724636077881","-0.788282871246338","0.303082436323166"],["0.234115958213806","0.848874568939209","0.430978506803513","0.798772096633911","-0.0713158845901489","-0.28972589969635","-0.863899230957031","0.103328108787537","0.496672362089157","0.160090088844299"],["-0.919906377792358","0.882125854492188","-0.431414484977722","0.736531257629395","-0.781158447265625","-0.949106931686401","0.0420392751693726","0.5621497631073","0.420358866453171","0.34537336230278"],["0.567350625991821","0.953349113464355","0.0911437273025513","0.906498432159424","-0.0608905553817749","0.611583471298218","-0.26683509349823","-0.722865343093872","0.807781934738159","0.424545735120773"],["-0.70417857170105","0.979068756103516","-0.539507150650024","-0.128188729286194","-0.129265904426575","-0.541911125183105","0.0443209409713745","0.350821226835251","-0.368717551231384","0.704294681549072"],["-0.132336974143982","-0.766562938690186","-0.844029426574707","-0.557302474975586","-0.85802435874939","-0.422609925270081","0.751968860626221","-0.764960050582886","0.175727009773254","0.0910598039627075"],["-0.468541502952576","0.444457739591599","-0.678611516952515","0.873724937438965","0.437861412763596","0.136785626411438","-0.330120444297791","0.449364870786667","-0.0640262365341187","-0.769571542739868"],["0.0130997896194458","0.882750034332275","-0.266652703285217","0.492922753095627","0.0351337194442749","-0.63213324546814","0.827952146530151","0.774836778640747","0.766182899475098","0.871351480484009"],["-0.789244174957275","-0.0346502065658569","0.132505536079407","-0.285462737083435","0.148861765861511","0.0686873197555542","0.153942704200745","-0.0574463605880737","0.71360445022583","-0.229245781898499"],["0.571060419082642","-0.490770936012268","0.470395296812058","0.313506573438644","-0.334088206291199","-0.911887168884277","-0.999157667160034","-0.738346338272095","-0.944574356079102","-0.515012741088867"],["0.314213961362839","0.314705103635788","-0.960050344467163","-0.624478340148926","-0.928115844726563","-0.0114623308181763","-0.875893592834473","-0.674236536026001","0.45404526591301","0.263214319944382"],["0.0910531282424927","0.339363545179367","0.806116342544556","-0.604089498519897","-0.807835102081299","-0.571088552474976","0.537544965744019","0.357043951749802","0.0949863195419312","-0.964898109436035"],["0.578784704208374","0.964215040206909","0.505121231079102","-0.884330987930298","-0.30101478099823","-0.479966759681702","-0.667566776275635","0.093098521232605","-0.469113230705261","0.407300680875778"]],[["-0.815507411956787","0.974270582199097","-0.560284614562988","-0.620048761367798","0.245883822441101","0.966017246246338","0.448416203260422","-0.389441609382629"],["0.772051811218262","0.572059869766235","0.175348401069641","-0.429211020469666","-0.959989786148071","0.00898277759552002","-0.633891344070435","0.876094818115234"],["0.473936051130295","-0.806090354919434","-0.890814065933228","-0.742563724517822","0.538774728775024","-0.133732199668884","0.949286699295044","0.465308159589767"],["-0.979823112487793","0.693881511688232","-0.207703948020935","-0.775970697402954","-0.898515939712524","0.113906264305115","0.620764970779419","0.331960409879684"],["-0.170052886009216","0.253739565610886","-0.462955594062805","0.436642855405808","0.14056384563446","0.505476236343384","0.838392972946167","0.854970693588257"],["0.227452874183655","-0.192689538002014","-0.110535979270935","-0.988366365432739","-0.802153587341309","0.620752811431885","0.28596231341362","0.974004030227661"],["-0.248183846473694","0.466330498456955","0.914470434188843","-0.746706962585449","-0.641535520553589","0.600245475769043","0.505548715591431","0.624047040939331"],["-0.262648224830627","-0.379230856895447","0.328968018293381","0.766323328018188","-0.873011589050293","0.306203573942184","-0.729285955429077","-0.461383938789368"],["-0.266744494438171","0.239827275276184","0.469722956418991","-0.462119221687317","-0.523119688034058","-0.540894508361816","-0.32377827167511","-0.937583446502686"],["0.0617135763168335","-0.00138866901397705","0.578153610229492","0.765968561172485","-0.0104714632034302","0.284191578626633","-0.243231892585754","-0.340345501899719"]],[["-0.638681888580322","-0.657704830169678","-0.65918493270874"],["0.293615311384201","-0.498522877693176","-0.352355360984802"],["0.376615017652512","-0.267456889152527","-0.209889054298401"],["0.629733562469482","-0.617679595947266","-0.916272878646851"],["-0.561379909515381","-0.879095554351807","0.0927788019180298"],["-0.278777241706848","0.888815402984619","-0.968537569046021"],["-0.335439085960388","0.0596417188644409","0.0704706907272339"],["0.95888352394104","-0.509288311004639","-0.668021202087402"]]],"Biases":["0.732761859893799","0.120028853416443","-0.676124334335327","-0.0838321447372437"]}