{"Weights":[[["0.572774648666382","0.0577086210250854","-0.739164352416992","-0.366243004798889","0.853665828704834","0.339785307645798","-0.52616548538208","0.302533358335495","-0.481703162193298","0.638904809951782","-0.995924234390259","-0.311311602592468","0.218694567680359"],["-0.758676052093506","-0.92867636680603","0.351226300001144","-0.638988494873047","0.0414348840713501","0.315962046384811","-0.16043221950531","0.740753650665283","0.895615577697754","-0.371148228645325","0.721044778823853","-0.492865681648254","0.521261930465698"],["0.202842116355896","0.683807134628296","-0.519829988479614","0.252527683973312","-0.574697017669678","0.662400245666504","0.826061725616455","-0.771442413330078","-0.249373316764832","-0.699292659759521","0.326444834470749","-0.260840058326721","-0.304101586341858"],["0.476661652326584","0.0441626310348511","0.3812036216259","-0.979456186294556","0.71048903465271","-0.936914443969727","0.329327076673508","-0.922324419021606","-0.382523894309998","-0.616674423217773","-0.814928531646729","0.163174510002136","0.377903908491135"],["-0.560169458389282","-0.865381956100464","-0.582570791244507","0.745867252349854","-0.299968123435974","0.453323572874069","-0.354337096214294","-0.840040922164917","-0.630494117736816","-0.743592739105225","-0.619741678237915","0.815003156661987","0.925984144210815"],["0.581854104995728","0.771631956100464","-0.69575309753418","0.512576341629028","0.0806242227554321","-0.735613584518433","-0.0622748136520386","0.409657210111618","-0.358794093132019","-0.803874969482422","0.42433688044548","-0.767403602600098","-0.20888340473175"],["0.146368861198425","-0.902313232421875","0.372545689344406","-0.587567806243896","-0.698230028152466","-0.75695276260376","-0.0395873785018921","0.146868109703064","0.595729112625122","0.44398495554924","0.300343245267868","0.0927296876907349","-0.839528322219849"],["-0.0820006132125854","0.522478818893433","0.185842156410217","-0.331287741661072","0.744929552078247","0.578032732009888","-0.487604737281799","-0.856123924255371","-0.195990920066834","-0.421977639198303","0.327573031187058","0.285303324460983","-0.950896501541138"],["-0.310889363288879","-0.0196448564529419","-0.517419576644897","-0.640944957733154","0.0938507318496704","0.0456458330154419","0.512809991836548","0.623307228088379","0.0474661588668823","0.438775986433029","-0.857411861419678","-0.873767137527466","-0.829171419143677"],["-0.895651340484619","0.668925285339355","0.66289496421814","-0.426404595375061","0.638081073760986","0.488721817731857","0.489393681287766","-0.544811010360718","0.174322724342346","-0.0353020429611206","0.740692138671875","-0.0653806924819946","0.174198031425476"],["0.0889016389846802","0.0690230131149292","0.224896788597107","0.98120379447937","0.487866133451462","0.846798896789551","0.0240105390548706","0.211886048316956","-0.395126461982727","0.280271261930466","-0.17307436466217","-0.6245276927948","-0.15180766582489"],["-0.660625457763672","-0.853837966918945","-0.55412769317627","-0.63292121887207","-0.358278870582581","-0.229841828346252","-0.0251766443252563","-0.403970837593079","0.572973489761353","0.589337587356567","-0.898497343063354","0.874494791030884","0.0421491861343384"],["0.967426061630249","-0.0658825635910034","-0.1136714220047","-0.986779451370239","0.444654673337936","0.397756785154343","-0.914520740509033","0.065468430519104","-0.453323245048523","-0.559982538223267","0.302821606397629","-0.678260326385498","0.799323081970215"],["-0.208016276359558","-0.781305074691772","0.949869871139526","-0.763684988021851","-0.577950477600098","-0.322908759117126","-0.73465633392334","-0.291835904121399","-0.676066637039185","0.621991634368896","-0.746093511581421","-0.1751629114151","-0.551914215087891"],["-0.987344980239868","-0.523427724838257","0.189525246620178","-0.344025254249573","-0.306388974189758","-0.239361643791199","0.322746962308884","-0.0732799768447876","0.895855665206909","-0.744462966918945","0.27441617846489","0.390900582075119","-0.577192306518555"],["-0.323727011680603","-0.323298335075378","-0.817235708236694","-0.224904894828796","0.856700897216797","0.380950421094894","0.609734296798706","-0.458680510520935","0.231943726539612","-0.281070590019226","-0.853926420211792","0.556849956512451","0.432770937681198"],["0.500571012496948","0.822972774505615","0.547983884811401","-0.183057904243469","0.394509762525558","0.0717886686325073","0.275568217039108","0.604859113693237","-0.318646550178528","-0.501139163970947","-0.393758654594421","0.783576965332031","-0.975658893585205"]],[["0.56621241569519","-0.977783918380737","0.00658690929412842","-0.3213871717453","-0.87016487121582","0.923420190811157","0.0426713228225708","0.886193752288818","0.309565275907516","-0.750343799591064"],["-0.706420183181763","0.578547716140747","0.939636945724487","-0.610081195831299","-0.798600435256958","-0.964174509048462","0.102268576622009","0.0413943529129028","-0.58440899848938","-0.255700469017029"],["0.307345122098923","0.379086941480637","0.91811466217041","0.883225440979004","0.132376313209534","-0.511697053909302","-0.828279972076416","-0.700424909591675","0.789168119430542","-0.476417422294617"],["0.49423810839653","-0.319618821144104","-0.246500849723816","-0.240614056587219","-0.0128709077835083","-0.169768929481506","-0.783962965011597","-0.898041486740112","-0.921840667724609","0.423190325498581"],["-0.238344550132751","0.265378206968308","0.203020453453064","-0.351826071739197","0.425236910581589","-0.141584515571594","-0.634332418441772","0.0403388738632202","-0.383295655250549","-0.608628988265991"],["-0.264317631721497","0.464266985654831","-0.928133726119995","-0.0755311250686646","0.272726505994797","0.325305670499802","-0.989694833755493","0.141013503074646","-0.38612973690033","-0.47451913356781"],["-0.938503742218018","0.764559507369995","0.960505723953247","0.432292908430099","0.480614393949509","-0.234383940696716","0.67724609375","-0.0304316282272339","0.900346994400024","-0.391455292701721"],["0.492662161588669","0.344039887189865","-0.00336325168609619","-0.840157985687256","-0.790940046310425","-0.859426498413086","-0.462361454963684","-0.940717697143555","-0.39376175403595","-0.303932309150696"],["-0.151674628257751","0.539471864700317","-0.43170154094696","0.124670147895813","-0.4924556016922","0.414114683866501","-0.599794149398804","-0.419323086738586","0.202122807502747","0.990768671035767"],["0.645772457122803","-0.493781685829163","0.649740695953369","0.411421746015549","0.0372387170791626","0.829833507537842","-0.116607546806335","0.468206375837326","-0.887121438980103","-0.391624808311462"],["-0.076414942741394","-0.902958869934082","0.194350600242615","-0.661265850067139","0.183772921562195","0.354917734861374","0.937340021133423","-0.28652012348175","-0.338352084159851","0.238467335700989"],["0.268737763166428","-0.4874027967453","-0.0556451082229614","-0.217449069023132","0.250210970640183","-0.0995818376541138","-0.287115931510925","-0.170981526374817","0.170586943626404","-0.196128726005554"],["-0.358548521995544","0.589866161346436","-0.0152889490127563","0.269730538129807","0.114294409751892","-0.599700212478638","-0.468361973762512","0.922184228897095","0.145449042320251","-0.583301067352295"]],[["0.0144814252853394","-0.941743612289429","0.0175668001174927","0.264287680387497","-0.246933579444885","-0.491273999214172","-0.0981189012527466","0.0371226072311401"],["0.313888520002365","0.780087471008301","-0.650169134140015","0.717665672302246","-0.23632800579071","0.110620141029358","-0.796973466873169","-0.175374865531921"],["0.813482761383057","-0.0190385580062866","0.763433456420898","-0.409149050712585","0.812340497970581","0.371963948011398","0.447517365217209","-0.581542253494263"],["0.855234384536743","0.441438406705856","0.741095066070557","-0.266364932060242","-0.163301825523376","-0.107345223426819","-0.428242087364197","-0.986652851104736"],["-0.67594838142395","0.314624518156052","0.278753966093063","-0.254878163337708","-0.564050912857056","0.569473266601563","-0.943380117416382","0.906911373138428"],["0.686742067337036","0.523650169372559","0.277023047208786","-0.356589198112488","-0.0765072107315063","-0.863956212997437","-0.836158037185669","0.37716218829155"],["0.332676857709885","0.199307322502136","-0.949059963226318","0.535675764083862","0.133157849311829","0.477576464414597","0.0393506288528442","0.0933946371078491"],["0.951061248779297","-0.571583986282349","-0.339808583259583","0.786422491073608","-0.399158835411072","-0.0455919504165649","-0.664528369903564","0.133819937705994"],["-0.0385042428970337","0.386100262403488","-0.0800267457962036","-0.395950675010681","0.381552189588547","0.957513332366943","-0.161242842674255","-0.741820096969604"],["-0.363469481468201","-0.342948317527771","-0.532990455627441","-0.470221638679504","-0.845865726470947","0.876354217529297","-0.992170333862305","-0.547023057937622"]],[["0.428664416074753","-0.838840246200562","-0.334354519844055"],["-0.601361513137817","0.503531694412231","-0.439197897911072"],["-0.367850422859192","-0.521156072616577","-0.698486328125"],["0.606487274169922","-0.457513213157654","0.269322842359543"],["-0.366743922233582","-0.589263677597046","0.247804522514343"],["-0.634519577026367","-0.253582358360291","-0.682404518127441"],["0.203417420387268","-0.437169909477234","-0.746292114257813"],["-0.5058913230896","0.135711789131165","0.709794044494629"]]],"Biases":["-0.566515684127808","-0.122649073600769","-0.105844140052795","0.271253794431686"]}