{"Weights":[[["-0.397276043891907","-0.296106219291687","-0.292478919029236","-0.123902916908264","0.954686641693115","-0.560643911361694","-0.975791215896606","0.39033243060112","0.32808992266655","-0.394188284873962","0.0579706430435181","0.608397245407104","-0.236583113670349"],["0.248998761177063","0.96013879776001","-0.158537745475769","0.0378180742263794","0.576207399368286","0.252276629209518","0.923885345458984","-0.825050354003906","-0.435977339744568","0.65065598487854","-0.248678803443909","0.557496786117554","0.965692520141602"],["-0.719367265701294","0.0590015649795532","0.152410864830017","0.199159026145935","-0.446783661842346","0.417369574308395","0.468632429838181","-0.690098762512207","0.407311409711838","-0.419824719429016","0.515466928482056","-0.0643209218978882","-0.707721710205078"],["-0.279946446418762","0.854541063308716","-0.176666855812073","0.392992228269577","0.865242719650269","-0.0736027956008911","0.00302588939666748","0.464661329984665","-0.973618507385254","-0.544434070587158","-0.0965536832809448","0.918426513671875","0.0949734449386597"],["0.17906129360199","-0.959991216659546","0.21073305606842","0.989891052246094","-0.849165201187134","0.129541277885437","-0.278483510017395","-0.863728523254395","-0.639705181121826","-0.734809398651123","-0.171607613563538","-0.405253291130066","0.108049988746643"],["-0.0342904329299927","0.15299665927887","0.145319104194641","0.779554128646851","0.572084188461304","0.550988674163818","0.851225614547729","0.819492816925049","0.380246132612228","-0.4099041223526","-0.628322124481201","-0.455845713615417","0.021694540977478"],["-0.115038990974426","-0.606023788452148","-0.388400197029114","0.806475400924683","0.736220359802246","-0.831512689590454","-0.212461829185486","-0.0515364408493042","0.694919109344482","-0.77271842956543","0.356990784406662","0.0673068761825562","-0.501155376434326"],["-0.859667539596558","0.224593281745911","-0.809321165084839","-0.293984293937683","0.339285105466843","-0.286863684654236","-0.351368546485901","-0.874447822570801","0.750050783157349","0.712299346923828","0.0742501020431519","0.615713596343994","-0.348394751548767"],["-0.210508942604065","0.586097717285156","0.335678786039352","0.0681596994400024","0.828121185302734","-0.735984086990356","0.508186340332031","-0.684127330780029","0.8319091796875","-0.63438606262207","0.505385637283325","-0.605113506317139","-0.148159861564636"],["0.625779151916504","-0.265469193458557","0.530981302261353","0.0240391492843628","0.774502754211426","-0.339527726173401","0.90296483039856","-0.359325766563416","-0.211168646812439","0.723730087280273","0.684283256530762","-0.240654110908508","-0.287745356559753"],["-0.0153635740280151","0.995250940322876","0.384877890348434","-0.499749302864075","-0.495894312858582","-0.389486908912659","0.989601612091064","0.204620003700256","0.411504715681076","-0.642794609069824","0.856368541717529","0.66621470451355","-0.919036626815796"],["0.737190008163452","0.0167196989059448","0.707874774932861","-0.0997170209884644","0.192328572273254","-0.172533869743347","-0.0131641626358032","0.946560859680176","-0.88935661315918","-0.401470541954041","-0.225170969963074","-0.714019298553467","0.448222130537033"],["0.271459549665451","0.432602137327194","0.15703284740448","-0.550315618515015","0.758668422698975","0.219696879386902","-0.566449642181396","-0.955657958984375","-0.602503776550293","0.489674776792526","-0.527024030685425","0.933364868164063","0.803853034973145"],["0.162901043891907","-0.915167331695557","-0.566949367523193","-0.285600781440735","0.237732291221619","0.656720399856567","0.818188667297363","0.104300856590271","-0.243714213371277","-0.999702930450439","-0.159977078437805","0.752786636352539","-0.418234705924988"],["-0.15791380405426","-0.375543236732483","0.00697529315948486","-0.124795794487","-0.61539626121521","-0.637093782424927","-0.690489768981934","-0.426579833030701","0.860055446624756","0.533807516098022","-0.184664130210876","-0.680927515029907","-0.657223701477051"],["0.785627126693726","0.781515121459961","0.708740949630737","-0.792868614196777","0.0146111249923706","0.359701126813889","-0.229849696159363","-0.263141512870789","0.584272146224976","-0.730779886245728","-0.47368323802948","0.858926773071289","-0.360413432121277"],["0.424559563398361","0.533894777297974","-0.128705859184265","0.508120536804199","0.116495251655579","0.833353281021118","-0.57172155380249","-0.453683733940125","-0.285791516304016","-0.947244644165039","-0.577988386154175","0.846612930297852","-0.60721492767334"]],[["0.844621896743774","-0.66409158706665","0.718037366867065","-0.993763208389282","0.948413610458374","-0.514286279678345","0.612212657928467","0.532655715942383","-0.465835452079773","-0.251475930213928"],["0.75337815284729","0.949778079986572","0.456744879484177","0.543689012527466","-0.196435809135437","-0.300681710243225","0.805692434310913","0.10264790058136","-0.891353130340576","0.743682384490967"],["0.840160846710205","0.856224536895752","-0.889210224151611","0.98882794380188","0.238327145576477","0.579451560974121","-0.041028618812561","0.835950374603271","-0.498516917228699","-0.599653005599976"],["-0.761245012283325","-0.61540412902832","-0.349759936332703","-0.434943079948425","-0.620465517044067","-0.0940755605697632","0.865509033203125","-0.678624391555786","-0.112318158149719","0.743402481079102"],["0.996482610702515","-0.201834559440613","-0.458273530006409","-0.931294918060303","0.398515194654465","0.604723215103149","0.599050045013428","0.255650013685226","0.550003290176392","-0.379806399345398"],["-0.202035784721375","0.702616930007935","-0.911707639694214","-0.496874928474426","0.8246750831604","0.384043663740158","0.221766591072083","0.815294981002808","0.849851131439209","0.464961022138596"],["0.388212889432907","0.276028126478195","0.822239637374878","0.583662509918213","0.333004206418991","-0.422062277793884","-0.0787161588668823","0.271216362714767","-0.817735433578491","0.108390212059021"],["-0.405596613883972","0.0870970487594604","0.353587120771408","0.0554381608963013","0.79310941696167","-0.74380087852478","-0.261106848716736","0.657403230667114","-0.394418358802795","-0.701361179351807"],["0.93878173828125","0.489517658948898","0.553786754608154","-0.425793528556824","-0.428185343742371","0.0958677530288696","0.106069922447205","0.935136318206787","-0.393014550209045","0.0336328744888306"],["-0.746647596359253","0.82648777961731","-0.67796802520752","0.970250368118286","-0.946594476699829","0.869312763214111","-0.363363146781921","0.940213918685913","0.874459266662598","0.104126334190369"],["-0.609033584594727","0.219419121742249","0.152264714241028","0.187906622886658","-0.657701015472412","-0.744616746902466","0.0689917802810669","0.676781892776489","0.159880757331848","0.487495869398117"],["0.0653599500656128","-0.778915405273438","0.0532344579696655","-0.1624516248703","0.536566019058228","0.15286386013031","0.659991025924683","-0.329910635948181","-0.79438328742981","-0.150520205497742"],["-0.0206130743026733","-0.350804686546326","-0.844872713088989","0.351486414670944","0.307324856519699","0.026584267616272","-0.673446893692017","0.972386598587036","0.394098967313766","0.525958061218262"]],[["-0.0780521631240845","0.908485174179077","-0.706862449645996","0.726958274841309","-0.481858849525452","0.627453088760376","0.169417500495911","-0.932012796401978"],["0.997999429702759","-0.589609146118164","-0.74855637550354","0.0267573595046997","-0.707562446594238","-0.442221999168396","-0.685289144515991","0.677219152450562"],["-0.941471338272095","0.128179669380188","-0.390833973884583","0.445684880018234","-0.965104103088379","0.526220321655273","-0.921826601028442","-0.230591893196106"],["0.643432140350342","0.815549373626709","0.57012939453125","0.255072325468063","0.931251525878906","0.334471672773361","-0.704697370529175","0.330296009778976"],["-0.51594877243042","-0.332053542137146","-0.265071034431458","0.772734642028809","-0.761228084564209","-0.730769872665405","-0.182634711265564","0.00360500812530518"],["0.717940807342529","0.945977687835693","-0.926436424255371","-0.373460650444031","0.632007122039795","-0.360977053642273","-0.542163133621216","-0.141264319419861"],["-0.108867526054382","-0.468977570533752","0.965412378311157","0.383299797773361","-0.703968286514282","-0.1021968126297","-0.264243483543396","0.939885377883911"],["-0.357350945472717","0.469500988721848","-0.185915589332581","-0.292150616645813","-0.271937012672424","0.661651372909546","0.140983700752258","0.01136314868927"],["0.381204336881638","0.467715471982956","0.328252285718918","-0.36945378780365","-0.906944513320923","0.888411521911621","0.198897480964661","0.0858360528945923"],["-0.392720580101013","0.764477252960205","0.136146187782288","0.622278451919556","0.681283235549927","0.873163938522339","0.707770347595215","-0.684075832366943"]],[["-0.770274877548218","-0.243786692619324","0.132557511329651"],["-0.378048300743103","0.881570816040039","-0.594248294830322"],["0.0861004590988159","-0.523798942565918","-0.913302421569824"],["0.740944623947144","0.43647238612175","-0.4613276720047"],["-0.715373992919922","0.701220750808716","0.0450764894485474"],["0.424556225538254","0.252725332975388","-0.440786480903625"],["-0.740112781524658","0.138978362083435","0.419216603040695"],["-0.847135543823242","0.142467856407166","0.634771347045898"]]],"Biases":["0.573198080062866","0.30730602145195","-0.334105849266052","-0.0075763463973999"]}