{"Weights":[[["0.703296422958374","-0.809089183807373","-0.416456580162048","-0.806389093399048","0.757558345794678","-0.0941444635391235","-0.914308786392212","-0.104899525642395","0.511010646820068","0.319249838590622","0.818439483642578","-0.80795955657959","0.939288139343262"],["-0.860493898391724","0.384692162275314","0.550428867340088","-0.486065745353699","0.557835102081299","0.0991533994674683","0.102181315422058","-0.0463360548019409","-0.885284900665283","0.573619604110718","-0.394770503044128","-0.289410710334778","0.858070611953735"],["-0.0791927576065063","-0.497045159339905","-0.290866017341614","0.120734095573425","-0.107764363288879","-0.495154738426209","-0.0535486936569214","-0.640941381454468","-0.928221464157104","0.368747681379318","-0.204694628715515","0.262320250272751","0.455326765775681"],["-0.502063751220703","-0.469498991966248","-0.212350249290466","0.573028087615967","0.735624551773071","0.899367332458496","-0.152171730995178","-0.640195608139038","0.0867654085159302","0.0914963483810425","-0.497015118598938","0.607048749923706","-0.298273921012878"],["0.253865927457809","0.945588350296021","-0.986208200454712","-0.949017286300659","0.155613780021667","-0.507405042648315","-0.361402630805969","0.811856269836426","0.530034303665161","-0.981980323791504","-0.631272792816162","-0.552551031112671","-0.344051957130432"],["0.641064882278442","-0.210167527198792","-0.0976966619491577","0.403337687253952","0.620634078979492","-0.89691424369812","-0.432606816291809","-0.811325073242188","0.0958179235458374","0.371779412031174","0.342225521802902","0.343245476484299","-0.171852469444275"],["0.211877703666687","0.50301456451416","0.483531206846237","-0.723900318145752","0.705771446228027","0.521563529968262","0.650901556015015","0.518723011016846","-0.0398858785629272","-0.121494174003601","0.951062917709351","0.579736232757568","-0.316044211387634"],["0.930154323577881","-0.539545774459839","0.514516592025757","-0.0270751714706421","-0.942452430725098","0.89452338218689","0.865504741668701","0.0862594842910767","-0.817193269729614","0.069438099861145","-0.333350539207459","0.116478800773621","-0.553177833557129"],["-0.323385834693909","0.501716613769531","0.415053337812424","0.160035014152527","-0.920223951339722","0.569828510284424","0.319376438856125","0.1558917760849","0.0521281957626343","0.407859772443771","0.467579573392868","0.383048504590988","-0.176243185997009"],["0.316853255033493","0.727074146270752","-0.512848615646362","-0.483604550361633","0.64370584487915","-0.162345290184021","-0.840813875198364","-0.0543502569198608","0.283174008131027","-0.901415348052979","-0.0826524496078491","0.408089131116867","0.563922882080078"],["-0.359047532081604","0.478525370359421","0.555047035217285","0.183527112007141","0.567670583724976","0.147099852561951","-0.864973783493042","-0.767042875289917","-0.393294930458069","0.203820586204529","-0.653865337371826","-0.386992812156677","0.79643177986145"],["-0.604712724685669","0.535885572433472","-0.0371245145797729","0.276391237974167","0.251296728849411","-0.571832180023193","0.815521717071533","-0.24242103099823","-0.352693915367126","0.12355649471283","-0.426647543907166","0.412581890821457","-0.501546382904053"],["-0.423978924751282","-0.223687291145325","-0.236738085746765","0.371579617261887","-0.164941191673279","0.0362375974655151","0.675535678863525","-0.417997002601624","-0.918914556503296","0.321459025144577","0.605594635009766","0.748778104782104","-0.376996636390686"],["-0.0022352933883667","-0.889120817184448","0.500351905822754","0.543168783187866","0.0543991327285767","0.195727467536926","-0.494889140129089","-0.198552489280701","-0.857946872711182","0.540083646774292","-0.834503650665283","0.139341473579407","-0.281736493110657"],["0.255046814680099","0.720377922058105","0.181675791740417","0.548216581344604","-0.68002986907959","0.509142160415649","0.873888254165649","0.552757024765015","0.841971397399902","-0.953346490859985","0.0211519002914429","-0.903153419494629","-0.39120614528656"],["-0.929233074188232","-0.675912380218506","-0.501891851425171","0.371885746717453","0.569431781768799","-0.64924693107605","0.180286526679993","-0.286990284919739","-0.965417623519897","0.470785588026047","-0.474083781242371","-0.519953489303589","-0.7670578956604"],["0.0600587129592896","-0.0940028429031372","-0.662037134170532","-0.97352123260498","-0.297642827033997","-0.316699624061584","0.241116881370544","0.108340859413147","-0.188682198524475","0.40103217959404","-0.440178513526917","-0.726959466934204","-0.472271084785461"]],[["-0.993117332458496","-0.0891221761703491","0.00800621509552002","-0.738658428192139","0.826180458068848","-0.589106798171997","-0.000688433647155762","0.48526856303215","0.313065737485886","-0.254730582237244"],["0.57868218421936","-0.395851492881775","0.860336542129517","0.382501095533371","0.536541223526001","0.827335357666016","0.4600929915905","-0.591041088104248","0.0415002107620239","0.857146263122559"],["-0.769687414169312","-0.227616906166077","0.0181998014450073","-0.592058181762695","0.973314523696899","-0.942760705947876","-0.406397461891174","0.92877721786499","0.652351379394531","0.12943160533905"],["0.653153896331787","-0.500762224197388","0.439819544553757","-0.590090036392212","-0.127566456794739","-0.270448088645935","0.694637060165405","0.956630945205688","0.764508962631226","-0.536627531051636"],["-0.336709141731262","-0.0160979032516479","0.917494773864746","-0.25592577457428","-0.342755436897278","0.587345600128174","-0.643935918807983","0.379607170820236","0.994458436965942","0.538609266281128"],["-0.360948204994202","0.428906410932541","0.205806374549866","-0.914647579193115","-0.182660460472107","-0.211077809333801","-0.646013498306274","-0.0838245153427124","0.249388575553894","0.474541634321213"],["-0.322092175483704","-0.47574770450592","0.817832231521606","-0.32558810710907","-0.627853631973267","-0.27730405330658","-0.856895685195923","-0.829448699951172","-0.650562286376953","-0.97516942024231"],["-0.459214329719543","0.720970869064331","0.540917873382568","-0.435477375984192","0.51068115234375","0.434563368558884","-0.33601438999176","-0.447252869606018","-0.199241757392883","-0.0335532426834106"],["-0.420358538627625","-0.298742651939392","0.218695759773254","0.270596474409103","0.00634729862213135","0.774572134017944","0.816012620925903","-0.871265649795532","-0.339446902275085","-0.827555179595947"],["0.662621974945068","-0.674326658248901","0.431104391813278","-0.915175199508667","0.524721145629883","0.692929983139038","-0.967690229415894","-0.79376745223999","0.169431328773499","-0.404993414878845"],["-0.625140905380249","-0.350918650627136","0.148635745048523","0.994908332824707","-0.880104303359985","-0.262421011924744","-0.00617396831512451","0.525917053222656","-0.94452691078186","-0.597545146942139"],["-0.446951746940613","0.517454385757446","0.836771249771118","0.364559859037399","0.727718114852905","-0.384837746620178","-0.296121716499329","0.698105812072754","0.392899960279465","0.206561684608459"],["-0.878844499588013","-0.0553926229476929","-0.655328273773193","-0.408811211585999","0.0630646944046021","0.271887272596359","-0.0115810632705688","-0.862501621246338","0.075853705406189","0.039608359336853"]],[["0.959630489349365","-0.500025033950806","0.227481961250305","0.406244963407516","0.539558887481689","-0.817246913909912","-0.382996201515198","0.671065330505371"],["0.676475763320923","-0.739440441131592","-0.688755512237549","-0.363976836204529","0.801594734191895","0.477017849683762","-0.589741706848145","-0.925905704498291"],["-0.0630131959915161","0.0585931539535522","0.55621337890625","0.413665741682053","0.299597710371017","-0.0178345441818237","0.961522102355957","-0.655070066452026"],["-0.511390924453735","0.986117601394653","-0.19246518611908","0.570578098297119","0.969406366348267","0.139566540718079","-0.0683177709579468","-0.341176152229309"],["-0.272303700447083","-0.412202954292297","-0.954514980316162","-0.0706547498703003","0.169474959373474","-0.0714890956878662","0.841694355010986","-0.672667026519775"],["0.324359625577927","-0.964778423309326","-0.741603374481201","-0.854648113250732","-0.676755905151367","-0.993580341339111","0.0184026956558228","0.586952924728394"],["-0.938598394393921","-0.989612340927124","-0.372849941253662","-0.277278304100037","-0.456674695014954","0.43994328379631","0.508944988250732","0.959969997406006"],["0.266817063093185","-0.171288132667542","-0.279362797737122","0.651269197463989","0.349418252706528","-0.90919828414917","0.185094952583313","0.0120917558670044"],["-0.991952419281006","0.980261534452438","-0.747624158859253","0.570107221603394","-0.0899771451950073","-0.140951991081238","-0.201628088951111","0.65762197971344"],["0.313275784254074","-0.558821201324463","0.209906697273254","-0.402890801429749","-0.0667086839675903","-0.940074682235718","0.452825039625168","0.930877685546875"]],[["0.517436981201172","-0.242421984672546","0.425167053937912"],["0.346532791852951","-0.580410003662109","0.939533472061157"],["-0.834424495697021","-0.138199210166931","0.393796414136887"],["-0.758752822875977","0.326422899961472","-0.450494647026062"],["0.139386534690857","0.950737953186035","0.947720527648926"],["-0.247644305229187","0.529762268066406","-0.990980386734009"],["0.663066148757935","-0.748270034790039","0.903357982635498"],["-0.953294515609741","-0.829956769943237","0.16851794719696"]]],"Biases":["0.0439907312393188","0.971524238586426","-0.614509344100952","0.00769031047821045"]}