{"Weights":[[["0.449619621038437","-0.722539901733398","-0.230721354484558","1","0.475064754486084","-0.445421695709229","0.158260941505432","-0.0764058828353882","0.777364492416382","-0.577097415924072","0.163821816444397","0.428879469633102","1"],["0.829716414213181","0.12102398276329","0.531921029090881","1","1","-0.236813902854919","0.503751516342163","0.242399930953979","-0.899832010269165","-0.488455176353455","-0.0209778845310211","-0.778019189834595","-0.333517789840698"],["0.858418941497803","0.706806778907776","-1","-0.159124374389648","-0.689427614212036","0.999357938766479","0.112694263458252","0.703341245651245","-1","-0.45251989364624","0.231044501066208","0.506427615880966","0.89271354675293"],["0.823708057403564","-0.573209315538406","0.00109586119651794","-0.859365224838257","-0.141681313514709","0.201707124710083","0.690121501684189","-0.356790542602539","0.0115472078323364","-0.769124507904053","0.566070079803467","1","-0.740063428878784"],["-0.67907452583313","-0.179486989974976","-0.512879371643066","0.654430389404297","0.891385912895203","-0.527676343917847","0.738198518753052","0.973071098327637","0.48663517832756","-0.483315467834473","0.0956157445907593","-0.359997987747192","-1"],["-0.670458078384399","0.319411873817444","-1","-0.583750009536743","-0.936903357505798","-0.473684817552567","0.892037034034729","0.688539981842041","0.516806602478027","-0.545079231262207","-0.327248454093933","-0.524251580238342","-1"],["0.54740571975708","-0.301088213920593","-0.215311408042908","0.940948814153671","-0.916509509086609","0.514171689748764","-0.742396235466003","0.385290145874023","-0.131176471710205","-0.293937474489212","0.40180692076683","-0.134071588516235","0.0266380310058594"],["0.191094726324081","-1","0.66111433506012","0.452608317136765","0.92807936668396","-0.158300399780273","0.623055696487427","-0.768797636032104","-0.0279985666275024","0.394985646009445","0.145785570144653","0.863292455673218","-0.423602223396301"],["-0.0998425483703613","1","0.939204216003418","0.859897583723068","-1","0.2957863509655","0.597189515829086","0.129652857780457","0.243695139884949","0.03751540184021","0.100872159004211","0.492305487394333","0.1652911901474"],["-0.635199546813965","-0.71859884262085","-0.919910430908203","-1","0.0684248208999634","-0.762312650680542","0.888964772224426","0.491692990064621","0.363451689481735","-0.0164879560470581","0.411880016326904","-0.334752321243286","-0.548084616661072"],["0.725384950637817","-0.549660205841064","0.430614590644836","1","-1","0.95978856086731","0.259813904762268","-0.401744246482849","-0.959638833999634","0.142376303672791","1","0.721603631973267","-1"],["0.649978876113892","0.723219007253647","0.543290257453918","0.0710242986679077","-0.32559597492218","-0.504427552223206","-0.702107906341553","-0.88979172706604","0.437464207410812","-0.439381957054138","1","-0.831575274467468","-0.79567289352417"],["1","-1","-1","0.921022653579712","-0.73219445347786","0.725766658782959","0.455370038747787","-0.195640206336975","0.480785369873047","0.364927977323532","0.83205258846283","0.306494683027267","-0.160227656364441"],["-0.284921407699585","-0.363807916641235","-0.314424633979797","-0.263019680976868","-1","-0.0185015201568604","0.793536067008972","-0.933070182800293","1","-0.662753582000732","-0.00490561127662659","0.315871208906174","-0.885504722595215"],["1","-0.918694853782654","-1","0.676104068756104","-0.22562575340271","-0.29663348197937","0.844052642583847","-0.568144470453262","1","1","-0.378326773643494","-0.518402576446533","0.135525941848755"],["-0.355605006217957","0.420925587415695","0.0352401435375214","1","-0.844191193580627","-0.43194568157196","0.931707143783569","1","0.0476647615432739","-0.00401198863983154","0.919533729553223","-0.5532066822052","-0.0419634580612183"],["-0.305906563997269","-0.367143511772156","1","1","-0.893085122108459","0.82546854019165","1","-1","1","-0.0998424291610718","-1","0.183016657829285","0.851744413375854"]],[["-0.0749188661575317","-1","0.224669337272644","1","-0.147103607654572","0.291218727827072","0.0915864706039429","0.357698887586594","-0.212791085243225","-0.625983744859695"],["0.527152180671692","0.348113268613815","0.820294260978699","0.498934954404831","0.558039784431458","-0.938524961471558","1","0.501100182533264","-0.349756717681885","0.334936857223511"],["-0.239704847335815","-0.063713550567627","-0.333806544542313","-0.106789588928223","-0.345870614051819","0.0888590812683105","-0.402732729911804","0.365254372358322","-0.583603143692017","-0.713875412940979"],["0.416389465332031","0.620360016822815","0.718389868736267","0.160517334938049","0.804927945137024","-0.0865592956542969","0.019208163022995","0.274677991867065","-0.877776503562927","0.670729041099548"],["-0.0258204936981201","0.090267539024353","-0.296215653419495","-0.29738986492157","1","-0.905344009399414","-0.808446764945984","0.187085747718811","-0.1596759557724","-1"],["-0.178255677223206","-1","1","-0.704323291778564","0.955174565315247","0.811431407928467","-0.380480408668518","-0.268031001091003","-0.929085493087769","-0.467185616493225"],["0.909247100353241","0.697157382965088","0.980240225791931","0.847283691167831","0.680972993373871","-0.347858786582947","-1","0.1760573387146","0.904450505971909","-0.0703108310699463"],["0.26943764090538","0.93468451499939","-0.592407733201981","-0.313545107841492","-0.542629718780518","-0.628148823976517","0.860324740409851","-1","-0.288762837648392","-1"],["-0.393944621086121","0.190760940313339","0.0493046045303345","0.390194982290268","-0.848449110984802","0.877130031585693","-0.421469569206238","0.0204604864120483","0.875868320465088","1"],["0.22385585308075","0.459040135145187","1","0.817570745944977","-0.541321635246277","0.701018691062927","0.771528720855713","-0.751819372177124","-0.274182677268982","0.339661955833435"],["1","0.563407361507416","0.45012891292572","-1","0.262300133705139","1","1","0.528804630041122","0.0491605997085571","-0.557973623275757"],["1","0.508135914802551","0.698340177536011","0.0770977735519409","-0.129996180534363","0.118481338024139","-0.655993223190308","-1","0.125127077102661","-0.508479386568069"],["0.126370668411255","-0.33732083439827","-0.509225994348526","-0.484417915344238","-0.40132212638855","-0.104225397109985","-0.638563871383667","0.209757924079895","0.996032238006592","-0.908203840255737"]],[["-0.0178512334823608","-0.546888828277588","0.209203094244003","-0.860778093338013","0.450154304504395","0.0395067930221558","-0.604464560747147","-0.294388651847839"],["0.432658165693283","-0.112012505531311","-0.0700887441635132","0.182296395301819","0.938874244689941","-0.720036864280701","-0.470146536827087","-1"],["0.147526860237122","-0.536569833755493","-0.344343543052673","-1","-0.0562187433242798","0.402042120695114","0.826622724533081","-1"],["-0.827324509620667","0.402085661888123","-0.461161971092224","1","0.868755042552948","-0.551351547241211","1","-0.98079252243042"],["-0.225736171007156","-0.957794666290283","-0.766503810882568","-0.216989755630493","0.451239347457886","-0.873225212097168","0.534510135650635","0.878655195236206"],["1","0.460653513669968","0.80146050453186","0.396963685750961","-0.718655705451965","0.112770438194275","0.801389217376709","0.791268348693848"],["0.909819334745407","-0.586328983306885","-0.575090885162354","0.0915979146957397","-0.390646457672119","0.407216787338257","0.178970098495483","1"],["-0.537570029497147","-0.540029287338257","-0.128961443901062","0.547380566596985","0.417585611343384","0.548567533493042","-0.629536867141724","0.637950897216797"],["-0.127380728721619","0.58084762096405","-0.736934542655945","1","0.997269630432129","-1","-0.554650902748108","0.739187836647034"],["0.708528995513916","0.56883716583252","-0.963480591773987","0.533454060554504","1","1","0.0403169393539429","-1"]],[["0.519218444824219","0.170230269432068","-0.478064894676209"],["-0.673228621482849","-0.686949014663696","0.335410922765732"],["-0.0467900037765503","1","0.347152203321457"],["0.489488333463669","-1","-1"],["-1","0.390049904584885","0.497786015272141"],["1","0.568914175033569","-0.0414276123046875"],["-1","0.271707534790039","0.84985888004303"],["-0.304552555084229","0.545784592628479","0.760889291763306"]]],"Biases":["-0.742567777633667","-0.512427806854248","0.19887363910675","0.835372447967529"]}