{"Weights":[[["-0.949168682098389","0.0873202085494995","0.638329982757568","0.63891863822937","-0.629142284393311","0.975604772567749","0.198761343955994","0.661396503448486","0.781457424163818","-0.133830428123474","-0.605456829071045","-0.269089818000793","-0.686949014663696"],["-0.622207880020142","-0.641881704330444","0.320291727781296","0.384083718061447","0.463437527418137","-0.994849443435669","0.886883735656738","0.503545045852661","0.0892549753189087","-0.400868773460388","-0.516201019287109","0.411131590604782","0.160380005836487"],["-0.66912317276001","-0.625525236129761","0.177647948265076","-0.959563732147217","-0.454502463340759","0.703981399536133","-0.292003989219666","-0.181119799613953","-0.311840415000916","0.441253155469894","-0.510700225830078","-0.600882530212402","-0.3814457654953"],["-0.119033932685852","-0.972919702529907","-0.45677387714386","0.522374868392944","0.316416710615158","0.590689420700073","0.799662351608276","-0.102814793586731","-0.58299446105957","-0.903424501419067","-0.284676671028137","0.868828296661377","-0.0481985807418823"],["0.687110424041748","-0.22748863697052","-0.205199837684631","0.817560911178589","0.515243530273438","0.901199340820313","-0.32571017742157","0.0679956674575806","0.804404258728027","-0.537076950073242","0.758898735046387","0.640740156173706","0.72781777381897"],["0.279762953519821","-0.58018946647644","-0.86511754989624","-0.422250628471375","0.804256200790405","0.245635151863098","0.888277530670166","-0.405547976493835","-0.473627686500549","-0.258475661277771","-0.714754104614258","-0.443327307701111","0.118200421333313"],["0.756981134414673","-0.118343234062195","-0.839376926422119","-0.119420886039734","-0.424115538597107","-0.586398124694824","0.113018393516541","-0.259914994239807","0.0180355310440063","-0.692627668380737","-0.960038661956787","-0.953783750534058","0.37975212931633"],["-0.324021935462952","0.530055999755859","-0.139946818351746","-0.856021165847778","-0.686464548110962","0.266378849744797","-0.194701313972473","0.891193389892578","0.385713785886765","-0.152112603187561","-0.732290029525757","0.107964158058167","-0.0981458425521851"],["0.501657724380493","0.732441186904907","-0.0697249174118042","0.13978898525238","-0.116889834403992","0.57160210609436","0.467892378568649","-0.403123497962952","0.284084051847458","-0.423002600669861","0.152474999427795","-0.154466032981873","-0.548718690872192"],["0.29530069231987","0.419837445020676","0.684816122055054","0.178393959999084","0.699970960617065","-0.635768175125122","0.748151063919067","0.857531309127808","-0.911804914474487","-0.593739032745361","0.909534454345703","0.195006489753723","0.117905497550964"],["0.944954633712769","-0.813653945922852","0.248457074165344","0.998891592025757","-0.926844120025635","-0.2666996717453","0.533510446548462","0.693891763687134","-0.76532506942749","0.4067322909832","0.13630473613739","0.323400944471359","0.0284563302993774"],["-0.107706904411316","0.626187086105347","-0.2932368516922","0.725285053253174","0.0890589952468872","-0.393918395042419","0.67698335647583","0.626593112945557","-0.626994132995605","0.143387198448181","0.117902159690857","-0.368781685829163","0.248636364936829"],["-0.103461623191834","0.93438458442688","-0.802188873291016","0.125211596488953","0.270857781171799","-0.388088583946228","0.207745909690857","0.440835922956467","-0.760124921798706","-0.711869239807129","-0.905925989151001","-0.454784035682678","-0.936100721359253"],["0.828214406967163","-0.61253809928894","-0.138621211051941","0.522245168685913","-0.676869869232178","0.147416710853577","-0.870697975158691","-0.295982241630554","0.165521264076233","-0.220142006874084","-0.0635274648666382","0.486600130796433","-0.367414116859436"],["0.0224140882492065","0.79752779006958","0.58522629737854","0.96102499961853","0.228510499000549","-0.98952317237854","0.85578465461731","-0.432984709739685","-0.458493113517761","0.273379296064377","-0.459381222724915","0.342922180891037","-0.316267371177673"],["-0.268243670463562","0.387810915708542","-0.397335648536682","0.168074250221252","-0.542966604232788","-0.180753588676453","-0.153976798057556","0.796036958694458","-0.978093147277832","-0.624741315841675","0.879486799240112","0.0383139848709106","0.449259251356125"],["0.492402285337448","-0.296877980232239","-0.0130237340927124","0.866909027099609","-0.913470983505249","-0.0745919942855835","0.734487295150757","-0.263660311698914","-0.289393782615662","-0.825371980667114","-0.39077889919281","-0.345063805580139","-0.345420002937317"]],[["0.303760498762131","-0.421805024147034","-0.0420118570327759","-0.333655714988709","-0.344648480415344","0.428190678358078","0.587409973144531","-0.0285712480545044","-0.814629316329956","-0.139862656593323"],["0.121834635734558","0.812590837478638","0.942542552947998","0.904948472976685","0.454762428998947","0.695709943771362","0.560527801513672","0.320217818021774","0.522689580917358","0.0897754430770874"],["-0.092089056968689","0.41908523440361","0.869475364685059","0.221864104270935","-0.0873512029647827","-0.434345602989197","-0.686902284622192","0.65247368812561","-0.814108848571777","-0.874080896377563"],["-0.912871599197388","0.737581014633179","0.325705975294113","-0.55742073059082","-0.901721000671387","-0.858474493026733","-0.605756282806396","0.597581386566162","-0.623085021972656","0.756833076477051"],["-0.440648198127747","-0.47149384021759","-0.863981485366821","-0.595812559127808","0.165752053260803","0.534801721572876","0.477234095335007","-0.202728390693665","-0.359761357307434","0.0538452863693237"],["0.632242202758789","-0.311241984367371","0.480756014585495","-0.508136510848999","-0.429810404777527","-0.295290112495422","0.353421658277512","-0.957123994827271","0.654517650604248","0.518513202667236"],["0.792894840240479","-0.839977979660034","-0.800389051437378","0.138781905174255","-0.108197093009949","0.581837892532349","-0.404049754142761","0.537951469421387","-0.0989228487014771","-0.574358224868774"],["0.380984276533127","-0.228593468666077","-0.712634086608887","-0.709563493728638","0.812250137329102","-0.207782387733459","0.474518030881882","0.357887715101242","0.844511270523071","0.414893120527267"],["0.179460883140564","0.756494998931885","-0.0207737684249878","-0.175084471702576","-0.666834354400635","-0.143171191215515","0.877683401107788","0.34077450633049","-0.715563297271729","0.198630690574646"],["0.67980170249939","0.656325578689575","-0.785597801208496","-0.858638525009155","-0.264455676078796","-0.272337079048157","0.724546909332275","0.299661368131638","0.0359231233596802","-0.167449355125427"],["0.630763292312622","-0.290234208106995","0.439019173383713","-0.825823545455933","-0.593707799911499","-0.846776008605957","-0.650418996810913","-0.321398615837097","-0.305606961250305","-0.86432671546936"],["0.066552996635437","0.169155716896057","-0.657231569290161","0.621492385864258","0.967525959014893","0.029302716255188","0.174391627311707","0.587661027908325","-0.400732636451721","-0.818314075469971"],["0.308899611234665","-0.91989541053772","0.462898224592209","0.960704326629639","-0.221316695213318","0.587537050247192","-0.951852798461914","-0.803698062896729","0.308908432722092","0.349469393491745"]],[["0.213624358177185","-0.733002424240112","-0.982612133026123","0.215495228767395","0.851426124572754","0.847498416900635","0.387695044279099","-0.602747917175293"],["-0.694612979888916","-0.0481301546096802","-0.641724109649658","-0.213667988777161","0.596977233886719","0.317838877439499","-0.418066382408142","0.895606517791748"],["0.793939352035522","-0.747314453125","0.131762862205505","-0.434961438179016","-0.378670334815979","0.0560575723648071","-0.41860044002533","0.723431587219238"],["0.583629608154297","-0.730567932128906","0.752042531967163","0.670995950698853","-0.406604886054993","-0.567100048065186","0.458435505628586","0.0164958238601685"],["0.202714562416077","-0.407360434532166","-0.541754961013794","0.67586088180542","-0.0296801328659058","-0.105286717414856","0.744126319885254","-0.261128067970276"],["-0.922241687774658","-0.924032211303711","0.403204888105392","0.250060051679611","0.832157611846924","0.33904954791069","-0.600090980529785","-0.772553682327271"],["0.745176076889038","0.737400770187378","0.759368181228638","-0.200982928276062","0.638519287109375","0.97751784324646","-0.823979616165161","0.204869866371155"],["0.245171189308167","-0.843329191207886","-0.124282002449036","0.62554407119751","0.218357443809509","0.850514650344849","-0.49125349521637","0.100751757621765"],["0.196851849555969","-0.54118824005127","-0.72749662399292","0.663279294967651","-0.567340612411499","0.0776873826980591","0.196810126304626","0.309512823820114"],["0.435763090848923","-0.528211116790771","-0.77480149269104","-0.313590884208679","-0.171330571174622","-0.66598105430603","0.952008008956909","-0.26928985118866"]],[["0.913749217987061","0.969542741775513","-0.554822206497192"],["0.119924664497375","-0.967023849487305","0.0690115690231323"],["-0.849281787872314","-0.445858836174011","-0.808251619338989"],["-0.0184744596481323","0.745383262634277","0.424135893583298"],["0.532264947891235","0.890516996383667","0.535237789154053"],["0.208221793174744","-0.402641415596008","0.407392710447311"],["0.0861226320266724","0.110793471336365","-0.0352481603622437"],["0.541447877883911","-0.434580683708191","-0.894808530807495"]]],"Biases":["0.596027851104736","0.4820336997509","0.942713022232056","-0.301190257072449"]}