{"Weights":[[["0.930768013000488","-0.384673237800598","-0.397362112998962","-0.432802081108093","0.636169910430908","0.428154438734055","0.652161359786987","0.662200212478638","-0.382455706596375","0.251950472593308","0.0659538507461548","0.723698854446411","0.469578713178635"],["0.735039949417114","0.0872842073440552","-0.734357357025146","-0.341752648353577","-0.794638395309448","-0.604334592819214","0.962435722351074","0.841316938400269","0.46090766787529","-0.718021154403687","-0.10974133014679","0.914807796478271","0.63703179359436"],["-0.26496684551239","-0.640814781188965","-0.401676058769226","0.707177877426147","-0.32929265499115","0.574895143508911","-0.922049283981323","-0.10265576839447","-0.161528468132019","-0.875874996185303","0.825675487518311","-0.798993110656738","0.54139518737793"],["0.554975509643555","-0.406635642051697","-0.0276345014572144","0.819383144378662","-0.34963047504425","0.593262434005737","-0.917541980743408","-0.0635632276535034","0.367608278989792","-0.792514085769653","0.0361779928207397","0.154131054878235","-0.147482752799988"],["-0.14933168888092","0.0331910848617554","0.158624529838562","0.238304734230042","-0.798901557922363","0.493271082639694","-0.376253724098206","-0.812579154968262","0.785106897354126","0.334650248289108","-0.595790147781372","0.373244732618332","-0.470890164375305"],["-0.705025196075439","-0.572639942169189","0.75895619392395","0.49182865023613","-0.828545570373535","-0.139004349708557","0.025368332862854","0.180338263511658","0.519623517990112","0.715654134750366","-0.601642370223999","-0.583309650421143","0.314310520887375"],["0.928291320800781","0.295429438352585","0.357553690671921","0.985697269439697","-0.754986047744751","0.34127089381218","-0.0208343267440796","-0.513148784637451","0.360393494367599","-0.669671058654785","-0.409811615943909","0.40999910235405","0.383352249860764"],["-0.992408037185669","-0.101441264152527","0.546096324920654","0.30947157740593","-0.158249974250793","0.876852035522461","0.14794385433197","-0.920803070068359","-0.745606660842896","0.358242005109787","-0.286417841911316","-0.403501629829407","0.883022546768188"],["0.20676863193512","0.59123706817627","-0.342343688011169","0.201998591423035","0.943164110183716","-0.627988576889038","0.0402225255966187","-0.632350921630859","0.464745968580246","-0.902105569839478","-0.920777797698975","-0.340466856956482","-0.98309063911438"],["0.851501703262329","0.268639296293259","-0.917957305908203","-0.496184945106506","0.863563060760498","0.550756454467773","0.41229173541069","-0.677831888198853","-0.00902092456817627","-0.156844258308411","-0.590210914611816","0.787394046783447","-0.924619913101196"],["0.666186809539795","0.15989363193512","-0.417245507240295","-0.560499668121338","0.485261410474777","-0.903495788574219","0.755069255828857","-0.853633403778076","0.621583938598633","0.156803488731384","0.480558842420578","0.756006717681885","-0.231706738471985"],["0.893235921859741","-0.054867148399353","0.705928325653076","0.497876137495041","-0.43085777759552","-0.519809007644653","0.163070559501648","0.548181533813477","-0.13030731678009","0.442858427762985","-0.156570792198181","0.859952449798584","-0.234358191490173"],["-0.570958614349365","-0.491807341575623","0.407802075147629","-0.405252575874329","0.0404461622238159","-0.939882278442383","0.252671211957932","-0.597884893417358","0.798092126846313","0.76235818862915","0.569950342178345","-0.427048087120056","-0.0645755529403687"],["-0.211222290992737","-0.691940784454346","0.102630257606506","-0.203273177146912","-0.533743619918823","0.674047708511353","0.923697948455811","0.925284147262573","-0.00890147686004639","0.0530060529708862","-0.974913597106934","0.199012398719788","0.138192772865295"],["-0.846113443374634","-0.224476218223572","-0.597470045089722","0.901803970336914","0.907064914703369","-0.118195176124573","-0.611733675003052","-0.701277017593384","-0.666374683380127","-0.224738717079163","-0.487225890159607","-0.640520095825195","-0.49393618106842"],["0.213573098182678","-0.545556306838989","-0.666697025299072","0.826004505157471","0.602641582489014","-0.274524569511414","-0.185184359550476","0.326642483472824","0.34301683306694","0.482025116682053","0.671319723129272","0.316659659147263","-0.327940821647644"],["-0.894582748413086","0.706756591796875","-0.810327768325806","0.573766469955444","-0.669431209564209","0.121838450431824","-0.260120272636414","0.63969349861145","0.387887209653854","0.635932922363281","-0.0620461702346802","-0.468810200691223","0.817754745483398"]],[["-0.915765285491943","-0.811188459396362","0.0646475553512573","-0.36698305606842","-0.287264466285706","0.740018844604492","-0.884935140609741","0.206400990486145","0.934109449386597","0.814478397369385"],["0.692092180252075","0.271541565656662","0.79720139503479","0.540802240371704","-0.936032295227051","-0.159756541252136","-0.956630706787109","-0.995248079299927","-0.384736895561218","-0.299140572547913"],["0.0961202383041382","0.568047761917114","0.348684281110764","0.694693088531494","0.34567853808403","0.763388633728027","-0.195519089698792","0.790918588638306","0.0385032892227173","0.269604176282883"],["-0.225847840309143","-0.823520183563232","0.405358523130417","-0.884014129638672","0.448227375745773","0.347565859556198","0.706820726394653","-0.691789150238037","0.0490211248397827","-0.545037269592285"],["0.402704447507858","-0.407854199409485","-0.314993262290955","-0.50210428237915","0.425575226545334","-0.45426332950592","0.57047176361084","-0.0929919481277466","-0.0399130582809448","0.783042192459106"],["0.542313814163208","-0.957599639892578","-0.665972471237183","0.180401206016541","-0.487301230430603","-0.792752504348755","-0.943683624267578","-0.0851122140884399","0.196921229362488","0.961755275726318"],["0.551298141479492","-0.591069221496582","0.217934012413025","-0.0812340974807739","0.0877591371536255","-0.0766104459762573","-0.262307286262512","0.644818305969238","0.807006120681763","0.753989696502686"],["0.980270862579346","-0.904242038726807","-0.871850967407227","0.0293527841567993","-0.768894195556641","-0.36184298992157","-0.0991150140762329","-0.885375261306763","-0.799412250518799","0.39210507273674"],["0.734675168991089","-0.618046522140503","0.717552661895752","0.258401125669479","0.0398386716842651","0.81254506111145","-0.0402258634567261","-0.346264481544495","0.208636403083801","0.668731451034546"],["0.671373605728149","-0.940414190292358","-0.789241790771484","0.989400148391724","-0.817118883132935","-0.656453132629395","-0.814040184020996","0.866490602493286","0.140514969825745","0.0565825700759888"],["-0.767184972763062","0.382646530866623","-0.770094156265259","0.913269758224487","-0.691843748092651","0.0760198831558228","0.00617325305938721","0.874830961227417","0.714547872543335","0.324479073286057"],["-0.166004300117493","0.161753058433533","-0.962846279144287","0.29299995303154","0.0841580629348755","0.584105730056763","0.574927806854248","-0.636691093444824","0.987799644470215","-0.659355640411377"],["-0.401804566383362","-0.996867656707764","0.842159032821655","-0.66858959197998","0.987691164016724","0.720542430877686","0.426863878965378","-0.673736333847046","0.861982107162476","0.497938126325607"]],[["0.502534627914429","-0.619787931442261","0.671679973602295","0.995061635971069","0.977932453155518","0.0508502721786499","-0.932497262954712","0.402834385633469"],["0.657335996627808","-0.0307749509811401","0.388879507780075","-0.587775468826294","0.0910674333572388","0.000281453132629395","0.445527762174606","0.404495447874069"],["0.658978700637817","0.808122396469116","0.840842008590698","0.17791759967804","0.780057668685913","0.0761302709579468","0.0421382188796997","0.63319993019104"],["0.544134378433228","0.642728328704834","0.24996030330658","0.170130133628845","-0.421772837638855","-0.492668032646179","-0.312695145606995","-0.20170271396637"],["-0.111880898475647","-0.276139855384827","0.844242811203003","0.570215702056885","-0.794132947921753","-0.568650960922241","0.488218277692795","-0.209311366081238"],["-0.778424263000488","-0.833026885986328","-0.193754315376282","0.294855326414108","-0.571878671646118","-0.0750244855880737","0.186159729957581","0.707421064376831"],["-0.00545847415924072","-0.0585252046585083","-0.99234414100647","0.248805165290833","-0.104317307472229","0.0290440320968628","-0.489712119102478","0.673102855682373"],["0.672966241836548","0.298359602689743","-0.731107473373413","0.102980971336365","-0.727290391921997","0.32015535235405","-0.840349912643433","-0.138572335243225"],["0.131000399589539","0.0903245210647583","0.272355526685715","0.54639458656311","-0.919144153594971","-0.537903308868408","0.420458287000656","-0.865193128585815"],["-0.593671560287476","0.0845950841903687","0.30169865489006","-0.132671475410461","-0.353618979454041","-0.559692621231079","-0.305581212043762","0.463706225156784"]],[["-0.33099353313446","0.983125925064087","0.601326704025269"],["-0.163469195365906","0.577726602554321","-0.187671542167664"],["-0.0777741670608521","-0.129490256309509","-0.684776782989502"],["-0.756414890289307","-0.74263334274292","-0.800892114639282"],["0.821616172790527","0.376778334379196","0.744435548782349"],["-0.779794931411743","-0.919939279556274","-0.724464654922485"],["-0.454408049583435","0.897438526153564","0.611814975738525"],["-0.953768014907837","0.777214288711548","0.0757902860641479"]]],"Biases":["0.216185927391052","-0.159815430641174","-0.59261417388916","0.67608118057251"]}