{"Weights":[[["-0.775935411453247","0.197685122489929","0.519058227539063","-0.370803713798523","0.502879858016968","0.906636476516724","-0.587443590164185","-0.880603075027466","-0.243540406227112","0.610929250717163","-0.564731359481812","-0.557168483734131","0.30336257815361"],["0.663801431655884","-0.9063720703125","-0.720906734466553","0.67010498046875","0.913362264633179","0.935661554336548","0.634387731552124","0.272633045911789","0.631622076034546","-0.939337491989136","0.0970281362533569","0.641575336456299","-0.420751214027405"],["-0.29164731502533","-0.763550758361816","0.0337363481521606","-0.816112518310547","-0.207113862037659","0.280706852674484","-0.910366058349609","0.176487803459167","-0.54636812210083","-0.557694435119629","0.563401460647583","0.981719970703125","-0.759029150009155"],["-0.341700196266174","-0.256931900978088","-0.0166710615158081","-0.0167633295059204","-0.721201658248901","0.976195335388184","0.0418628454208374","-0.792922496795654","0.150352120399475","0.462729185819626","0.118401169776917","-0.511200189590454","-0.217885375022888"],["-0.52455997467041","-0.0910507440567017","-0.753557682037354","0.277386873960495","0.0969487428665161","-0.396680235862732","0.896185636520386","-0.0400146245956421","-0.711129665374756","-0.392320275306702","0.762988090515137","-0.87216854095459","-0.868510246276855"],["-0.324003338813782","-0.513701915740967","-0.884705543518066","0.140019774436951","0.370004624128342","0.44943043589592","-0.674814462661743","0.210710883140564","-0.61931848526001","-0.500088214874268","-0.0397542715072632","-0.142496228218079","-0.11775267124176"],["0.250396221876144","-0.628944873809814","-0.807371854782104","-0.307769656181335","-0.455134987831116","0.0146263837814331","-0.575403928756714","-0.981629371643066","-0.614784955978394","0.881080150604248","0.806500673294067","0.675551891326904","-0.112959504127502"],["0.854493141174316","0.649201393127441","0.403152674436569","-0.505213737487793","0.577563285827637","-0.554899454116821","0.533202886581421","-0.939805269241333","-0.31009829044342","-0.62370491027832","0.874030590057373","0.79939603805542","-0.222453474998474"],["-0.106533408164978","0.919894218444824","-0.878959894180298","-0.323785424232483","-0.510483980178833","0.184262156486511","0.147900938987732","0.116309523582459","-0.0423151254653931","-0.694029808044434","-0.105607151985168","0.0920218229293823","-0.750787973403931"],["0.288269251585007","0.746106147766113","-0.764874219894409","0.294454544782639","0.381845921278","0.787070989608765","0.583495855331421","-0.316829085350037","-0.0958820581436157","0.748443841934204","-0.358618855476379","0.989405393600464","0.0598541498184204"],["-0.578678369522095","0.894038438796997","-0.0661743879318237","0.919807195663452","-0.0718938112258911","-0.391518473625183","0.529945611953735","-0.401410222053528","-0.984195470809937","-0.154152989387512","0.0528908967971802","-0.270545125007629","-0.512479305267334"],["-0.0170060396194458","-0.886173963546753","0.549022436141968","0.911925554275513","-0.513318538665771","0.715531349182129","-0.133166193962097","0.434045284986496","-0.476442694664001","0.881722927093506","-0.9089195728302","0.661025762557983","0.285515755414963"],["0.68825101852417","-0.829595565795898","-0.440769553184509","-0.0798026323318481","-0.66330099105835","0.859913110733032","-0.323357224464417","-0.184207797050476","-0.608980417251587","-0.246216893196106","-0.0428768396377563","-0.83759593963623","-0.0245028734207153"],["-0.276743531227112","0.713237762451172","-0.393107056617737","-0.160279393196106","0.0421100854873657","0.877152442932129","-0.464786171913147","0.952590227127075","-0.586678743362427","0.964300155639648","0.137155175209045","0.689087867736816","-0.645124197006226"],["-0.650347709655762","-0.595573425292969","-0.550310850143433","-0.33486020565033","0.630626916885376","-0.201036334037781","0.271622627973557","-0.665860891342163","-0.121227145195007","-0.141408324241638","-0.86317777633667","-0.133905529975891","-0.733968019485474"],["-0.687017679214478","-0.135036110877991","-0.666621923446655","-0.636958837509155","-0.613465309143066","0.680914640426636","-0.446502804756165","-0.801648855209351","0.798305511474609","-0.100755572319031","0.294735878705978","0.463355749845505","0.579186201095581"],["-0.749760627746582","0.773013830184937","-0.206169486045837","0.182917714118958","0.474551647901535","-0.462206244468689","-0.584257841110229","0.260767430067062","0.588275671005249","-0.351327776908875","0.584319353103638","0.184335350990295","0.41801854968071"]],[["0.955194473266602","0.23423159122467","-0.732211589813232","0.846273422241211","-0.738075256347656","0.0741153955459595","-0.210319399833679","0.76890754699707","-0.392536759376526","-0.615326404571533"],["-0.0253599882125854","0.105326294898987","-0.491363406181335","0.836621284484863","-0.941060543060303","-0.912225246429443","-0.745647430419922","0.812196254730225","0.700844764709473","-0.132973313331604"],["0.0630940198898315","0.576363325119019","-0.521760940551758","0.80230450630188","-0.865370035171509","-0.8203125","-0.498842835426331","-0.423829436302185","0.469454735517502","-0.264368176460266"],["0.251101225614548","0.333260267972946","0.056451678276062","-0.278304219245911","-0.122724175453186","0.720260620117188","0.164136528968811","0.703888893127441","-0.703427076339722","0.120439410209656"],["0.473484009504318","-0.0897473096847534","-0.756577968597412","0.155709862709045","0.092171311378479","-0.98924446105957","-0.799480199813843","0.101194024085999","0.357860058546066","0.665464639663696"],["-0.24250066280365","-0.341655611991882","-0.150867342948914","0.105907320976257","-0.402682185173035","0.40047213435173","0.891083240509033","0.887991428375244","0.783645629882813","0.593664884567261"],["-0.144561886787415","-0.77514386177063","-0.820946455001831","-0.269130825996399","0.434972256422043","0.707618474960327","-0.180807948112488","0.1528559923172","0.278599232435226","-0.315472722053528"],["-0.526176452636719","0.784467935562134","0.344035357236862","0.46591517329216","0.00862562656402588","-0.872684240341187","-0.677112817764282","-0.269047141075134","-0.500479936599731","0.904879570007324"],["0.858260869979858","-0.666901111602783","-0.313753008842468","-0.758327484130859","-0.125254273414612","0.591464042663574","0.188889384269714","-0.698331356048584","0.780619144439697","-0.650975942611694"],["-0.285606026649475","-0.533994913101196","-0.864576578140259","-0.764631748199463","0.435417622327805","-0.154224038124084","0.537248134613037","0.911211252212524","0.0261660814285278","0.847111701965332"],["-0.406180024147034","-0.454570889472961","-0.463484644889832","0.948596000671387","0.534423828125","0.505202293395996","-0.20060670375824","0.0871785879135132","0.392875403165817","-0.993472099304199"],["-0.224485278129578","-0.750431060791016","-0.284584879875183","0.957363367080688","-0.546420574188232","-0.00401723384857178","0.975882530212402","-0.782763004302979","0.215951323509216","-0.580388307571411"],["0.799165964126587","0.246814846992493","0.952221393585205","0.988250970840454","-0.741366147994995","0.474238365888596","-0.963844537734985","0.88160514831543","-0.136863827705383","-0.075926661491394"]],[["0.742562294006348","-0.830350399017334","0.552369832992554","-0.127159714698792","0.360123127698898","0.652766704559326","0.195628046989441","0.538752794265747"],["-0.714087963104248","-0.630656242370605","-0.670915842056274","0.214398503303528","-0.67084789276123","0.0868507623672485","-0.955434560775757","-0.78389310836792"],["0.835514307022095","0.842186450958252","-0.982291460037231","0.778305768966675","-0.0927003622055054","-0.0587469339370728","0.712628602981567","0.951130867004395"],["0.904958963394165","0.647070169448853","0.287787884473801","0.1739741563797","0.565191507339478","-0.958274364471436","-0.621960878372192","-0.91440749168396"],["-0.0529836416244507","-0.345641255378723","-0.226012349128723","0.123693823814392","0.864313125610352","0.570325136184692","0.545337200164795","-0.557194471359253"],["0.371232718229294","-0.413326382637024","-0.331058621406555","0.0366817712783813","-0.446901917457581","0.122691512107849","-0.71566915512085","-0.741868734359741"],["-0.151434779167175","-0.774060726165771","-0.771719932556152","-0.42272412776947","0.660507202148438","-0.339257597923279","-0.452159762382507","-0.220670819282532"],["-0.343302607536316","0.75769567489624","-0.0362807512283325","-0.347466349601746","-0.572075605392456","0.354887694120407","-0.182078957557678","-0.175377011299133"],["-0.230207324028015","0.778188228607178","-0.962773084640503","-0.151284337043762","-0.0733321905136108","-0.566442966461182","-0.168508887290955","-0.00621283054351807"],["-0.246716141700745","-0.370348572731018","-0.81456995010376","-0.358461499214172","0.0991224050521851","0.0936611890792847","0.115840077400208","-0.0841935873031616"]],[["-0.672624826431274","0.412651032209396","0.0152908563613892"],["0.0113505125045776","0.194409489631653","0.476071804761887"],["-0.96563982963562","-0.606547355651855","-0.324556946754456"],["-0.451508164405823","0.837284564971924","-0.727012157440186"],["-0.982864379882813","-0.232553362846375","0.0601364374160767"],["-0.867377519607544","-0.0746046304702759","0.261697977781296"],["0.200049042701721","0.825573921203613","-0.0715926885604858"],["0.119423270225525","0.00969922542572021","-0.170487523078918"]]],"Biases":["-0.630552530288696","-0.734651327133179","-0.551778554916382","-0.203344225883484"]}