{"Weights":[[["0.144949316978455","-0.722539901733398","-0.230721354484558","0.718280553817749","0.906689643859863","-0.974887371063232","0.158260941505432","-0.0764058828353882","0.777364492416382","-0.577097415924072","-0.508155822753906","0.428879469633102","0.655084848403931"],["0.301064699888229","0.296109169721603","0.691695928573608","0.0684167146682739","0.600643157958984","-0.064778208732605","0.503751516342163","0.345149487257004","-0.899832010269165","-0.488455176353455","-0.27130925655365","-0.778019189834595","-0.207328915596008"],["0.858418941497803","-0.147186160087585","-0.462867140769959","0.544909954071045","-0.689427614212036","0.999357938766479","-0.0912703275680542","0.703341245651245","-0.0838347673416138","-0.136536478996277","0.430638760328293","0.182972073554993","0.89271354675293"],["0.823708057403564","-0.824864864349365","0.359190434217453","-0.859365224838257","-0.141681313514709","0.0740965604782104","0.775649547576904","-0.156687378883362","-0.190917134284973","-0.544248580932617","0.566070079803467","0.257920235395432","-0.740063428878784"],["-0.67907452583313","-0.94719672203064","-0.512879371643066","0.654430389404297","-0.03954017162323","-0.123675227165222","0.738198518753052","0.973071098327637","0.48663517832756","-0.202554106712341","0.0956157445907593","-0.940011262893677","-0.263433814048767"],["-0.670458078384399","-0.441465973854065","-0.233862996101379","-0.583750009536743","-0.012971043586731","0.452024906873703","-0.428556799888611","0.688539981842041","0.516806602478027","-0.545079231262207","-0.327248454093933","0.0187259912490845","-0.171733498573303"],["0.54740571975708","-0.301088213920593","-0.215311408042908","0.782931566238403","-0.449263453483582","0.0724385976791382","-0.659819602966309","0.946031332015991","-0.548903226852417","0.368312567472458","0.466389387845993","0.0274094343185425","-0.276619076728821"],["-0.298152565956116","-0.552026748657227","-0.31044614315033","0.452608317136765","0.92807936668396","0.214934706687927","0.623055696487427","-0.841335296630859","-0.0279985666275024","0.394985646009445","0.0776885747909546","0.664047718048096","-0.423602223396301"],["-0.902317523956299","0.295223444700241","0.939204216003418","0.26970574259758","-0.656316757202148","0.2957863509655","-0.771878242492676","0.129652857780457","0.243695139884949","-0.951583385467529","-0.207294344902039","0.492305487394333","0.1652911901474"],["-0.635199546813965","-0.71859884262085","-0.919910430908203","-0.526597499847412","0.0684248208999634","-0.762312650680542","-0.0137053728103638","0.491692990064621","0.363451689481735","-0.0164879560470581","-0.574651718139648","-0.898333072662354","-0.00224459171295166"],["0.725384950637817","-0.549660205841064","-0.352081894874573","0.0553106069564819","-0.362021803855896","0.95978856086731","-0.383890509605408","-0.401744246482849","-0.959638833999634","0.142376303672791","0.422613114118576","0.721603631973267","-0.676559448242188"],["0.649978876113892","0.321226567029953","-0.0204595327377319","0.0710242986679077","-0.32559597492218","-0.33024537563324","-0.702107906341553","-0.275442719459534","0.437464207410812","-0.439381957054138","0.0333908796310425","-0.311920523643494","-0.79567289352417"],["0.470039337873459","-0.931229829788208","-0.320664525032043","0.921022653579712","-0.297191023826599","0.725766658782959","0.362500876188278","-0.195640206336975","0.373716562986374","0.364927977323532","0.64131236076355","0.306494683027267","-0.160227656364441"],["-0.255743622779846","-0.928726673126221","-0.314424633979797","-0.263019680976868","-0.960193395614624","-0.139360547065735","-0.110150933265686","-0.933070182800293","0.0178390741348267","-0.662753582000732","-0.349886536598206","0.315871208906174","-0.885504722595215"],["0.662904024124146","-0.168722033500671","-0.418263077735901","0.676104068756104","-0.921559810638428","-0.650614261627197","-0.305241227149963","-0.777852296829224","0.490212172269821","0.863881349563599","-0.378326773643494","-0.272855401039124","0.00775682926177979"],["-0.355605006217957","0.420925587415695","0.371594876050949","-0.0678058862686157","-0.204122424125671","-0.43194568157196","0.931707143783569","0.857806921005249","0.0476647615432739","-0.00401198863983154","0.919533729553223","-0.5532066822052","0.236777186393738"],["-0.743343591690063","-0.367143511772156","0.653585910797119","0.64497184753418","-0.800947427749634","0.82546854019165","0.986161708831787","-0.521185636520386","0.93502140045166","-0.0998424291610718","-0.387768149375916","-0.350077509880066","0.851744413375854"]],[["-0.154250741004944","-0.973957061767578","0.224669337272644","1","-0.955818653106689","0.291218727827072","0.788526892662048","0.357698887586594","0.700148105621338","-0.918164491653442"],["0.502767086029053","0.123984217643738","0.757567167282104","0.120930284261703","0.834594964981079","-1","0.898274421691895","-0.135446190834045","-0.943633556365967","-0.638368844985962"],["0.677586793899536","-0.971497774124146","-0.165282487869263","-0.410943150520325","-0.345870614051819","-0.573920726776123","-0.402732729911804","0.365254372358322","-0.235303282737732","-0.624333143234253"],["0.981956720352173","0.506131172180176","-0.907546520233154","0.160517334938049","0.197444081306458","-0.835407972335815","-0.449896931648254","0.0282133817672729","-0.729622364044189","0.523023366928101"],["1","-0.308345794677734","-0.296215653419495","-0.29738986492157","0.635951519012451","-0.905344009399414","-0.249637484550476","1","-0.1596759557724","-0.476670861244202"],["-0.376022458076477","-0.863524675369263","-0.366833716630936","-0.704323291778564","0.775433540344238","0.811431407928467","-0.380480408668518","0.115525096654892","-0.929085493087769","-0.467185616493225"],["1","0.697157382965088","0.791080474853516","0.433698385953903","0.309107035398483","0.219503998756409","-0.724563121795654","0.743953943252563","0.430357664823532","-0.0400389432907104"],["1","0.93468451499939","0.265107005834579","-0.128664374351501","-0.436843514442444","-0.752400159835815","0.142574071884155","-0.359495043754578","-0.780633687973022","-0.735454082489014"],["-0.393944621086121","0.487085789442062","0.0493046045303345","0.0100587606430054","0.107694506645203","0.877130031585693","-0.421469569206238","-0.521090030670166","0.875868320465088","0.515308141708374"],["0.22385585308075","0.459040135145187","0.440485686063766","0.665466248989105","0.792202949523926","0.942763328552246","0.771528720855713","-0.270160555839539","-0.274182677268982","-0.356842637062073"],["-0.361008048057556","-0.010907769203186","0.825367212295532","-0.532080411911011","0.693617582321167","0.511237382888794","0.602001070976257","0.231686234474182","0.81599223613739","-0.557973623275757"],["0.912548065185547","0.592893362045288","0.698340177536011","0.0770977735519409","-0.129996180534363","0.486244887113571","-0.655993223190308","-0.420842051506042","0.113759398460388","-0.767065525054932"],["-0.0719887018203735","-1","0.345865696668625","-1","-0.343434691429138","-0.342974543571472","-0.638563871383667","0.209757924079895","0.996032238006592","-0.908203840255737"]],[["-0.0178512334823608","-0.546888828277588","-0.0985809564590454","-0.860778093338013","0.504026979207993","-0.698525190353394","-0.984197378158569","-0.294388651847839"],["1","-0.112012505531311","-0.0700887441635132","0.182296395301819","0.938874244689941","-0.092556357383728","0.186200976371765","-0.575623273849487"],["0.147526860237122","-0.536569833755493","-0.344343543052673","-1","-0.0562187433242798","0.402042120695114","0.826622724533081","-0.349077343940735"],["-0.241313338279724","0.402085661888123","0.441717505455017","0.406861990690231","0.371957510709763","-0.551351547241211","0.375088423490524","-0.9897540807724"],["0.343013256788254","-1","-0.766503810882568","0.436215162277222","0.0755783319473267","-0.873225212097168","0.534510135650635","0.878655195236206"],["0.550375699996948","0.460653513669968","0.80146050453186","0.0829697847366333","0.126307606697083","0.112770438194275","0.801389217376709","0.791268348693848"],["0.502514839172363","-0.586328983306885","-0.575090885162354","0.0915979146957397","-1","0.630277872085571","0.809091091156006","0.268368065357208"],["-0.762141942977905","-0.749717354774475","-0.128961443901062","1","-0.0756312608718872","0.548567533493042","-0.404039740562439","0.637950897216797"],["-0.127380728721619","-0.270004630088806","-0.286449790000916","1","0.747463583946228","-0.528603792190552","0.102980494499207","0.739187836647034"],["1","0.804629325866699","-0.23803174495697","0.533454060554504","0.88066554069519","0.811517477035522","0.0403169393539429","-0.174757719039917"]],[["0.519218444824219","0.170230269432068","-0.478064894676209"],["-0.789307594299316","-0.686949014663696","-0.169658094644547"],["-0.0467900037765503","0.925782203674316","0.347152203321457"],["0.489488333463669","-1","-0.407742977142334"],["-1","0.390049904584885","0.497786015272141"],["0.254140108823776","0.568914175033569","0.12442409992218"],["-0.922942757606506","0.271707534790039","-0.0288711786270142"],["-1","0.545784592628479","0.760889291763306"]]],"Biases":["0.0439907312393188","-0.512427806854248","-0.614509344100952","0.835372447967529"]}