{"Weights":[[["0.449619621038437","-0.722539901733398","0.112127631902695","1","0.466019511222839","-0.854911684989929","-1","-0.0764058828353882","0.777364492416382","-0.333495736122131","0.163821816444397","0.428879469633102","0.807892680168152"],["0.829716414213181","0.12102398276329","1","1","1","-0.801628708839417","0.225915789604187","-0.425654768943787","-0.899832010269165","-0.488455176353455","-0.0209778845310211","-0.778019189834595","-0.333517789840698"],["1","0.706806778907776","-1","-0.756685972213745","-0.159475564956665","0.999357938766479","0.37522292137146","0.703341245651245","-1","-0.45251989364624","0.231044501066208","-0.184917122125626","0.89271354675293"],["0.823708057403564","0.174642294645309","0.00109586119651794","-0.128099679946899","-0.141681313514709","0.201707124710083","0.690121501684189","-0.356790542602539","0.0115472078323364","-0.769124507904053","0.566070079803467","1","-1"],["-1","-0.179486989974976","-0.512879371643066","0.654430389404297","0.891385912895203","-0.527676343917847","0.738198518753052","0.973071098327637","0.48663517832756","-0.483315467834473","0.0956157445907593","0.0196177661418915","-1"],["-0.670458078384399","0.319411873817444","-1","-0.583750009536743","-0.936903357505798","-0.473684817552567","0.892037034034729","0.688539981842041","0.516806602478027","-0.545079231262207","-0.327248454093933","-0.524251580238342","-1"],["0.54740571975708","-0.301088213920593","-0.215311408042908","0.940948814153671","-1","0.0299689769744873","-0.742396235466003","0.385290145874023","0.867332458496094","-0.293937474489212","0.40180692076683","-0.134071588516235","0.0266380310058594"],["0.112095564603806","-1","0.66111433506012","0.452608317136765","0.92807936668396","-0.158300399780273","0.906547427177429","0.0976368188858032","-0.0279985666275024","0.394985646009445","0.0583828687667847","0.863292455673218","-0.423602223396301"],["-0.0998425483703613","1","0.939204216003418","0.859897583723068","-1","0.2957863509655","1","0.129652857780457","0.243695139884949","0.03751540184021","0.100872159004211","0.492305487394333","-0.228110790252686"],["-0.635199546813965","-0.71859884262085","-0.919910430908203","-0.460403680801392","-0.644972205162048","-0.762312650680542","0.888964772224426","-0.123718291521072","-0.265544921159744","0.21630334854126","0.411880016326904","-0.334752321243286","-0.548084616661072"],["0.725384950637817","-0.197979003190994","0.581822633743286","1","-1","0.95978856086731","0.836624026298523","-0.401744246482849","-0.959638833999634","-1","1","0.721603631973267","-1"],["0.649978876113892","0.723219007253647","0.543290257453918","-0.310716867446899","-0.567468643188477","-0.504427552223206","-0.47880756855011","-0.88979172706604","0.437464207410812","-1","1","-0.36477866768837","-0.380852490663528"],["1","-1","-1","0.921022653579712","-0.73219445347786","0.725766658782959","0.455370038747787","-0.195640206336975","1","0.0732966363430023","0.83205258846283","0.306494683027267","-0.160227656364441"],["-0.284921407699585","-0.363807916641235","-0.314424633979797","-0.263019680976868","-1","-0.0185015201568604","0.793536067008972","-0.933070182800293","1","-0.662753582000732","-0.00490561127662659","0.315871208906174","-0.641579508781433"],["1","-0.918694853782654","-1","0.676104068756104","-0.22562575340271","-0.29663348197937","0.844052642583847","-0.568144470453262","1","1","-0.378326773643494","-0.518402576446533","-0.44451904296875"],["-0.355605006217957","-0.00198832154273987","0.0352401435375214","1","-0.844191193580627","-0.43194568157196","1","1","0.0476647615432739","-0.00401198863983154","0.919533729553223","-0.61623203754425","-0.0419634580612183"],["-0.305906563997269","-0.367143511772156","1","1","-0.893085122108459","0.82546854019165","1","-1","1","-0.0998424291610718","-1","0.587449163198471","0.851744413375854"]],[["-1","-1","0.224669337272644","1","-0.147103607654572","0.291218727827072","0.0915864706039429","0.357698887586594","-0.212791085243225","-0.625983744859695"],["0.502767086029053","0.348113268613815","0.820294260978699","0.498934954404831","0.558039784431458","-1","1","0.501100182533264","-0.349756717681885","0.334936857223511"],["-0.239704847335815","-0.063713550567627","-0.333806544542313","-0.106789588928223","-0.345870614051819","-0.573920726776123","-0.402732729911804","0.365254372358322","-0.583603143692017","-0.713875412940979"],["0.823115080595016","0.620360016822815","0.718389868736267","0.160517334938049","0.804927945137024","0.932967633008957","0.019208163022995","0.274677991867065","-0.877776503562927","0.0866345167160034"],["-0.0258204936981201","0.090267539024353","-0.296215653419495","-0.29738986492157","1","-1","-0.808446764945984","0.187085747718811","-0.1596759557724","-1"],["-0.178255677223206","-1","0.283023089170456","-0.704323291778564","0.955174565315247","0.811431407928467","-0.380480408668518","-0.268031001091003","-0.0816719532012939","-0.467185616493225"],["0.909247100353241","1","0.980240225791931","-0.681866556406021","0.0974048972129822","-0.606022357940674","-1","0.1760573387146","0.904450505971909","-0.0703108310699463"],["0.26943764090538","1","-1","0.18884003162384","-0.542629718780518","-0.628148823976517","0.860324740409851","-0.846827507019043","-0.288762837648392","-1"],["-0.393944621086121","0.190760940313339","0.0493046045303345","0.390194982290268","-0.848449110984802","0.877130031585693","-0.421469569206238","0.0204604864120483","0.875868320465088","1"],["0.22385585308075","0.459040135145187","1","0.817570745944977","-0.541321635246277","0.701018691062927","0.771528720855713","-0.751819372177124","-0.274182677268982","0.339661955833435"],["1","0.563407361507416","0.45012891292572","-0.949130415916443","0.262300133705139","1","1","0.528804630041122","0.0491605997085571","-1"],["1","0.508135914802551","0.667847037315369","0.0770977735519409","-0.129996180534363","0.118481338024139","-0.655993223190308","-1","0.125127077102661","-1"],["0.126370668411255","-1","-0.509225994348526","-0.484417915344238","-0.40132212638855","-0.104225397109985","-0.638563871383667","0.209757924079895","0.996032238006592","-0.908203840255737"]],[["-0.550122141838074","-0.546888828277588","0.572799742221832","-1","1","0.151195049285889","-0.984197378158569","-0.24175488948822"],["0.432658165693283","-0.112012505531311","-0.0700887441635132","0.135526895523071","0.938874244689941","-0.582068115472794","-0.470146536827087","-1"],["0.871266722679138","-1","-0.344343543052673","-0.288912296295166","-0.0562187433242798","-0.459614306688309","1","-1"],["-0.827324509620667","0.402085661888123","0.996061205863953","-0.210663914680481","0.979063332080841","-0.551351547241211","1","-1"],["-0.225736171007156","-1","-0.766503810882568","-0.446993350982666","1","-1","0.534510135650635","0.0402235984802246"],["0.511581063270569","0.460653513669968","1","0.0829697847366333","0.716493964195251","-0.386383056640625","-0.80155611038208","0.791268348693848"],["1","-0.586328983306885","-0.575090885162354","1","-0.123715430498123","0.407216787338257","-0.769498467445374","0.802651286125183"],["-0.537570029497147","-0.540029287338257","0.320971101522446","0.213443279266357","0.417585611343384","-0.264569759368896","-0.404039740562439","0.637950897216797"],["-0.127380728721619","0.58084762096405","-0.172380447387695","1","0.997269630432129","-1","-0.554650902748108","0.739187836647034"],["1","0.966745227575302","-1","0.533454060554504","1","0.811517477035522","0.00780975818634033","-1"]],[["0.519218444824219","0.170230269432068","-0.478064894676209"],["-0.673228621482849","-0.686949014663696","0.335410922765732"],["-0.0467900037765503","1","0.347152203321457"],["0.489488333463669","-1","-1"],["-1","0.390049904584885","0.497786015272141"],["1","0.568914175033569","-0.0414276123046875"],["-1","0.271707534790039","0.84985888004303"],["-0.304552555084229","0.545784592628479","0.760889291763306"]]],"Biases":["-0.742567777633667","-0.512427806854248","0.19887363910675","0.835372447967529"]}